digraph Tree {
node [shape=box, style="rounded", color="black", fontname=helvetica] ;
edge [fontname=helvetica] ;
0 [label="dateRow <= 2015.3\nmse = 86078.4\nsamples = 866\nvalue = 3837.1"] ;
1 [label="Temp_Avg <= 59.5\nmse = 61420.7\nsamples = 382\nvalue = 3684.8"] ;
0 -> 1 [labeldistance=2.5, labelangle=45, headlabel="True"] ;
2 [label="dateRow <= 2014.5\nmse = 63086.8\nsamples = 213\nvalue = 3594.3"] ;
1 -> 2 ;
3 [label="day <= 15.5\nmse = 54462.8\nsamples = 142\nvalue = 3543.0"] ;
2 -> 3 ;
4 [label="month_int <= 1.5\nmse = 63267.9\nsamples = 69\nvalue = 3628.2"] ;
3 -> 4 ;
5 [label="Temp_Avg <= 44.5\nmse = 59504.9\nsamples = 10\nvalue = 3920.6"] ;
4 -> 5 ;
6 [label="Temp_Avg <= 27.0\nmse = 26526.2\nsamples = 8\nvalue = 4011.9"] ;
5 -> 6 ;
7 [label="mse = 0.0\nsamples = 1\nvalue = 3566.0"] ;
6 -> 7 ;
8 [label="year <= 2013.5\nmse = 14157.4\nsamples = 7\nvalue = 4041.6"] ;
6 -> 8 ;
9 [label="day <= 9.5\nmse = 5062.1\nsamples = 6\nvalue = 4015.6"] ;
8 -> 9 ;
10 [label="Temp_Avg <= 43.0\nmse = 3895.7\nsamples = 4\nvalue = 3986.5"] ;
9 -> 10 ;
11 [label="Temp_Avg <= 41.5\nmse = 261.6\nsamples = 3\nvalue = 4006.7"] ;
10 -> 11 ;
12 [label="dateRow <= 2013.1\nmse = 41.4\nsamples = 2\nvalue = 3998.6"] ;
11 -> 12 ;
13 [label="mse = 0.0\nsamples = 1\nvalue = 3993.0"] ;
12 -> 13 ;
14 [label="mse = 0.0\nsamples = 1\nvalue = 4006.0"] ;
12 -> 14 ;
15 [label="mse = 0.0\nsamples = 1\nvalue = 4035.0"] ;
11 -> 15 ;
16 [label="mse = 0.0\nsamples = 1\nvalue = 3805.0"] ;
10 -> 16 ;
17 [label="day <= 10.5\nmse = 546.8\nsamples = 2\nvalue = 4088.5"] ;
9 -> 17 ;
18 [label="mse = 0.0\nsamples = 1\nvalue = 4048.0"] ;
17 -> 18 ;
19 [label="mse = 0.0\nsamples = 1\nvalue = 4102.0"] ;
17 -> 19 ;
20 [label="mse = 0.0\nsamples = 1\nvalue = 4405.0"] ;
8 -> 20 ;
21 [label="Temp_Avg <= 45.5\nmse = 24979.7\nsamples = 2\nvalue = 3555.8"] ;
5 -> 21 ;
22 [label="mse = 0.0\nsamples = 1\nvalue = 3647.0"] ;
21 -> 22 ;
23 [label="mse = 0.0\nsamples = 1\nvalue = 3282.0"] ;
21 -> 23 ;
24 [label="dateRow <= 2014.1\nmse = 42779.1\nsamples = 59\nvalue = 3567.9"] ;
4 -> 24 ;
25 [label="Temp_Avg <= 38.5\nmse = 33082.6\nsamples = 42\nvalue = 3502.7"] ;
24 -> 25 ;
26 [label="dateRow <= 2013.6\nmse = 19944.7\nsamples = 18\nvalue = 3419.0"] ;
25 -> 26 ;
27 [label="dateRow <= 2013.2\nmse = 23091.7\nsamples = 13\nvalue = 3384.2"] ;
26 -> 27 ;
28 [label="day <= 3.5\nmse = 19377.8\nsamples = 8\nvalue = 3472.7"] ;
27 -> 28 ;
29 [label="day <= 2.5\nmse = 16829.4\nsamples = 4\nvalue = 3395.2"] ;
28 -> 29 ;
30 [label="month_int <= 2.5\nmse = 5477.6\nsamples = 2\nvalue = 3487.3"] ;
29 -> 30 ;
31 [label="mse = 0.0\nsamples = 1\nvalue = 3592.0"] ;
30 -> 31 ;
32 [label="mse = 0.0\nsamples = 1\nvalue = 3435.0"] ;
30 -> 32 ;
33 [label="Temp_Avg <= 31.0\nmse = 2025.0\nsamples = 2\nvalue = 3257.0"] ;
29 -> 33 ;
34 [label="mse = 0.0\nsamples = 1\nvalue = 3212.0"] ;
33 -> 34 ;
35 [label="mse = 0.0\nsamples = 1\nvalue = 3302.0"] ;
33 -> 35 ;
36 [label="dateRow <= 2013.2\nmse = 5685.2\nsamples = 4\nvalue = 3569.5"] ;
28 -> 36 ;
37 [label="mse = 0.0\nsamples = 1\nvalue = 3699.0"] ;
36 -> 37 ;
38 [label="dateRow <= 2013.2\nmse = 126.9\nsamples = 3\nvalue = 3526.3"] ;
36 -> 38 ;
39 [label="month_int <= 2.5\nmse = 6.2\nsamples = 2\nvalue = 3518.5"] ;
38 -> 39 ;
40 [label="mse = 0.0\nsamples = 1\nvalue = 3521.0"] ;
39 -> 40 ;
41 [label="mse = 0.0\nsamples = 1\nvalue = 3516.0"] ;
39 -> 41 ;
42 [label="mse = 0.0\nsamples = 1\nvalue = 3542.0"] ;
38 -> 42 ;
43 [label="month_int <= 7.5\nmse = 8574.9\nsamples = 5\nvalue = 3284.8"] ;
27 -> 43 ;
44 [label="dateRow <= 2013.3\nmse = 2955.4\nsamples = 4\nvalue = 3314.0"] ;
43 -> 44 ;
45 [label="dateRow <= 2013.2\nmse = 111.1\nsamples = 3\nvalue = 3292.2"] ;
44 -> 45 ;
46 [label="mse = 0.0\nsamples = 1\nvalue = 3307.0"] ;
45 -> 46 ;
47 [label="dateRow <= 2013.2\nmse = 1.7\nsamples = 2\nvalue = 3284.8"] ;
45 -> 47 ;
48 [label="mse = 0.0\nsamples = 1\nvalue = 3284.0"] ;
47 -> 48 ;
49 [label="mse = 0.0\nsamples = 1\nvalue = 3287.0"] ;
47 -> 49 ;
50 [label="mse = 0.0\nsamples = 1\nvalue = 3445.0"] ;
44 -> 50 ;
51 [label="mse = 0.0\nsamples = 1\nvalue = 3080.0"] ;
43 -> 51 ;
52 [label="Temp_Avg <= 29.5\nmse = 12867.6\nsamples = 5\nvalue = 3461.3"] ;
26 -> 52 ;
53 [label="mse = 0.0\nsamples = 1\nvalue = 3624.0"] ;
52 -> 53 ;
54 [label="dateRow <= 2013.7\nmse = 9864.1\nsamples = 4\nvalue = 3434.2"] ;
52 -> 54 ;
55 [label="mse = 0.0\nsamples = 1\nvalue = 3623.0"] ;
54 -> 55 ;
56 [label="Temp_Avg <= 32.0\nmse = 3279.0\nsamples = 3\nvalue = 3396.4"] ;
54 -> 56 ;
57 [label="mse = 0.0\nsamples = 1\nvalue = 3489.0"] ;
56 -> 57 ;
58 [label="Temp_Avg <= 34.5\nmse = 1419.2\nsamples = 2\nvalue = 3373.2"] ;
56 -> 58 ;
59 [label="mse = 0.0\nsamples = 1\nvalue = 3395.0"] ;
58 -> 59 ;
60 [label="mse = 0.0\nsamples = 1\nvalue = 3308.0"] ;
58 -> 60 ;
61 [label="dateRow <= 2013.6\nmse = 33320.8\nsamples = 24\nvalue = 3572.7"] ;
25 -> 61 ;
62 [label="month_int <= 2.5\nmse = 28928.2\nsamples = 18\nvalue = 3618.6"] ;
61 -> 62 ;
63 [label="mse = 0.0\nsamples = 1\nvalue = 3953.0"] ;
62 -> 63 ;
64 [label="month_int <= 4.5\nmse = 21242.3\nsamples = 17\nvalue = 3590.7"] ;
62 -> 64 ;
65 [label="day <= 5.5\nmse = 16215.0\nsamples = 10\nvalue = 3517.0"] ;
64 -> 65 ;
66 [label="Temp_Avg <= 40.5\nmse = 7489.1\nsamples = 4\nvalue = 3585.6"] ;
65 -> 66 ;
67 [label="mse = 0.0\nsamples = 1\nvalue = 3492.0"] ;
66 -> 67 ;
68 [label="Temp_Avg <= 51.5\nmse = 5581.6\nsamples = 3\nvalue = 3623.0"] ;
66 -> 68 ;
69 [label="Temp_Avg <= 45.5\nmse = 4332.0\nsamples = 2\nvalue = 3600.0"] ;
68 -> 69 ;
70 [label="mse = 0.0\nsamples = 1\nvalue = 3638.0"] ;
69 -> 70 ;
71 [label="mse = 0.0\nsamples = 1\nvalue = 3486.0"] ;
69 -> 71 ;
72 [label="mse = 0.0\nsamples = 1\nvalue = 3715.0"] ;
68 -> 72 ;
73 [label="day <= 11.5\nmse = 15536.8\nsamples = 6\nvalue = 3448.4"] ;
65 -> 73 ;
74 [label="day <= 8.5\nmse = 16427.8\nsamples = 4\nvalue = 3487.2"] ;
73 -> 74 ;
75 [label="Temp_Avg <= 42.0\nmse = 1605.6\nsamples = 2\nvalue = 3394.3"] ;
74 -> 75 ;
76 [label="mse = 0.0\nsamples = 1\nvalue = 3366.0"] ;
75 -> 76 ;
77 [label="mse = 0.0\nsamples = 1\nvalue = 3451.0"] ;
75 -> 77 ;
78 [label="dateRow <= 2013.3\nmse = 6320.2\nsamples = 2\nvalue = 3626.5"] ;
74 -> 78 ;
79 [label="mse = 0.0\nsamples = 1\nvalue = 3706.0"] ;
78 -> 79 ;
80 [label="mse = 0.0\nsamples = 1\nvalue = 3547.0"] ;
78 -> 80 ;
81 [label="month_int <= 3.5\nmse = 156.2\nsamples = 2\nvalue = 3351.5"] ;
73 -> 81 ;
82 [label="mse = 0.0\nsamples = 1\nvalue = 3364.0"] ;
81 -> 82 ;
83 [label="mse = 0.0\nsamples = 1\nvalue = 3339.0"] ;
81 -> 83 ;
84 [label="Temp_Avg <= 53.5\nmse = 10025.9\nsamples = 7\nvalue = 3693.9"] ;
64 -> 84 ;
85 [label="dateRow <= 2013.6\nmse = 249.8\nsamples = 3\nvalue = 3754.6"] ;
84 -> 85 ;
86 [label="month_int <= 8.5\nmse = 0.2\nsamples = 2\nvalue = 3762.5"] ;
85 -> 86 ;
87 [label="mse = 0.0\nsamples = 1\nvalue = 3763.0"] ;
86 -> 87 ;
88 [label="mse = 0.0\nsamples = 1\nvalue = 3762.0"] ;
86 -> 88 ;
89 [label="mse = 0.0\nsamples = 1\nvalue = 3723.0"] ;
85 -> 89 ;
90 [label="day <= 3.5\nmse = 12433.0\nsamples = 4\nvalue = 3633.2"] ;
84 -> 90 ;
91 [label="dateRow <= 2013.2\nmse = 22801.0\nsamples = 2\nvalue = 3703.0"] ;
90 -> 91 ;
92 [label="mse = 0.0\nsamples = 1\nvalue = 3552.0"] ;
91 -> 92 ;
93 [label="mse = 0.0\nsamples = 1\nvalue = 3854.0"] ;
91 -> 93 ;
94 [label="Temp_Avg <= 57.0\nmse = 107.6\nsamples = 2\nvalue = 3586.7"] ;
90 -> 94 ;
95 [label="mse = 0.0\nsamples = 1\nvalue = 3594.0"] ;
94 -> 95 ;
96 [label="mse = 0.0\nsamples = 1\nvalue = 3572.0"] ;
94 -> 96 ;
97 [label="Temp_Avg <= 49.5\nmse = 26991.9\nsamples = 6\nvalue = 3464.4"] ;
61 -> 97 ;
98 [label="Temp_Avg <= 41.5\nmse = 4012.2\nsamples = 5\nvalue = 3391.8"] ;
97 -> 98 ;
99 [label="mse = 0.0\nsamples = 1\nvalue = 3545.0"] ;
98 -> 99 ;
100 [label="day <= 13.0\nmse = 1212.2\nsamples = 4\nvalue = 3372.6"] ;
98 -> 100 ;
101 [label="Temp_Avg <= 43.0\nmse = 457.8\nsamples = 3\nvalue = 3361.9"] ;
100 -> 101 ;
102 [label="mse = 0.0\nsamples = 1\nvalue = 3338.0"] ;
101 -> 102 ;
103 [label="year <= 2013.5\nmse = 54.2\nsamples = 2\nvalue = 3379.8"] ;
101 -> 103 ;
104 [label="mse = 0.0\nsamples = 1\nvalue = 3367.0"] ;
103 -> 104 ;
105 [label="mse = 0.0\nsamples = 1\nvalue = 3384.0"] ;
103 -> 105 ;
106 [label="mse = 0.0\nsamples = 1\nvalue = 3448.0"] ;
100 -> 106 ;
107 [label="mse = 0.0\nsamples = 1\nvalue = 3791.0"] ;
97 -> 107 ;
108 [label="dateRow <= 2014.2\nmse = 32086.0\nsamples = 17\nvalue = 3721.0"] ;
24 -> 108 ;
109 [label="dateRow <= 2014.2\nmse = 39443.9\nsamples = 5\nvalue = 3864.1"] ;
108 -> 109 ;
110 [label="dateRow <= 2014.2\nmse = 23644.5\nsamples = 3\nvalue = 3680.0"] ;
109 -> 110 ;
111 [label="dateRow <= 2014.1\nmse = 3481.0\nsamples = 2\nvalue = 3828.0"] ;
110 -> 111 ;
112 [label="mse = 0.0\nsamples = 1\nvalue = 3769.0"] ;
111 -> 112 ;
113 [label="mse = 0.0\nsamples = 1\nvalue = 3887.0"] ;
111 -> 113 ;
114 [label="mse = 0.0\nsamples = 1\nvalue = 3532.0"] ;
110 -> 114 ;
115 [label="month_int <= 3.0\nmse = 3271.8\nsamples = 2\nvalue = 4011.4"] ;
109 -> 115 ;
116 [label="mse = 0.0\nsamples = 1\nvalue = 4040.0"] ;
115 -> 116 ;
117 [label="mse = 0.0\nsamples = 1\nvalue = 3897.0"] ;
115 -> 117 ;
118 [label="dateRow <= 2014.2\nmse = 15417.6\nsamples = 12\nvalue = 3656.6"] ;
108 -> 118 ;
119 [label="mse = 0.0\nsamples = 1\nvalue = 3429.0"] ;
118 -> 119 ;
120 [label="dateRow <= 2014.3\nmse = 10732.6\nsamples = 11\nvalue = 3681.9"] ;
118 -> 120 ;
121 [label="Temp_Avg <= 47.5\nmse = 6654.4\nsamples = 6\nvalue = 3750.3"] ;
120 -> 121 ;
122 [label="Temp_Avg <= 41.5\nmse = 655.3\nsamples = 4\nvalue = 3699.3"] ;
121 -> 122 ;
123 [label="dateRow <= 2014.2\nmse = 121.0\nsamples = 3\nvalue = 3684.2"] ;
122 -> 123 ;
124 [label="mse = 0.0\nsamples = 1\nvalue = 3671.0"] ;
123 -> 124 ;
125 [label="Temp_Avg <= 30.5\nmse = 8.0\nsamples = 2\nvalue = 3693.0"] ;
123 -> 125 ;
126 [label="mse = 0.0\nsamples = 1\nvalue = 3689.0"] ;
125 -> 126 ;
127 [label="mse = 0.0\nsamples = 1\nvalue = 3695.0"] ;
125 -> 127 ;
128 [label="mse = 0.0\nsamples = 1\nvalue = 3737.0"] ;
122 -> 128 ;
129 [label="dateRow <= 2014.3\nmse = 410.9\nsamples = 2\nvalue = 3869.3"] ;
121 -> 129 ;
130 [label="mse = 0.0\nsamples = 1\nvalue = 3898.0"] ;
129 -> 130 ;
131 [label="mse = 0.0\nsamples = 1\nvalue = 3855.0"] ;
129 -> 131 ;
132 [label="dateRow <= 2014.4\nmse = 2689.0\nsamples = 5\nvalue = 3596.5"] ;
120 -> 132 ;
133 [label="dateRow <= 2014.4\nmse = 1823.1\nsamples = 4\nvalue = 3609.0"] ;
132 -> 133 ;
134 [label="Temp_Avg <= 28.5\nmse = 655.2\nsamples = 3\nvalue = 3594.5"] ;
133 -> 134 ;
135 [label="mse = 0.0\nsamples = 1\nvalue = 3544.0"] ;
134 -> 135 ;
136 [label="day <= 11.5\nmse = 174.2\nsamples = 2\nvalue = 3604.6"] ;
134 -> 136 ;
137 [label="mse = 0.0\nsamples = 1\nvalue = 3631.0"] ;
136 -> 137 ;
138 [label="mse = 0.0\nsamples = 1\nvalue = 3598.0"] ;
136 -> 138 ;
139 [label="mse = 0.0\nsamples = 1\nvalue = 3696.0"] ;
133 -> 139 ;
140 [label="mse = 0.0\nsamples = 1\nvalue = 3509.0"] ;
132 -> 140 ;
141 [label="Temp_Avg <= 28.0\nmse = 30596.2\nsamples = 73\nvalue = 3456.3"] ;
3 -> 141 ;
142 [label="Temp_Avg <= 22.5\nmse = 16448.5\nsamples = 9\nvalue = 3320.4"] ;
141 -> 142 ;
143 [label="dateRow <= 2014.4\nmse = 10948.7\nsamples = 5\nvalue = 3406.6"] ;
142 -> 143 ;
144 [label="dateRow <= 2013.5\nmse = 440.6\nsamples = 3\nvalue = 3337.2"] ;
143 -> 144 ;
145 [label="mse = 0.0\nsamples = 1\nvalue = 3379.0"] ;
144 -> 145 ;
146 [label="day <= 24.0\nmse = 4.7\nsamples = 2\nvalue = 3326.8"] ;
144 -> 146 ;
147 [label="mse = 0.0\nsamples = 1\nvalue = 3323.0"] ;
146 -> 147 ;
148 [label="mse = 0.0\nsamples = 1\nvalue = 3328.0"] ;
146 -> 148 ;
149 [label="day <= 23.5\nmse = 7040.9\nsamples = 2\nvalue = 3522.3"] ;
143 -> 149 ;
150 [label="mse = 0.0\nsamples = 1\nvalue = 3641.0"] ;
149 -> 150 ;
151 [label="mse = 0.0\nsamples = 1\nvalue = 3463.0"] ;
149 -> 151 ;
152 [label="day <= 20.5\nmse = 628.2\nsamples = 4\nvalue = 3205.3"] ;
142 -> 152 ;
153 [label="mse = 0.0\nsamples = 1\nvalue = 3176.0"] ;
152 -> 153 ;
154 [label="Temp_Avg <= 26.0\nmse = 297.0\nsamples = 3\nvalue = 3220.0"] ;
152 -> 154 ;
155 [label="year <= 2013.5\nmse = 22.2\nsamples = 2\nvalue = 3210.3"] ;
154 -> 155 ;
156 [label="mse = 0.0\nsamples = 1\nvalue = 3207.0"] ;
155 -> 156 ;
157 [label="mse = 0.0\nsamples = 1\nvalue = 3217.0"] ;
155 -> 157 ;
158 [label="mse = 0.0\nsamples = 1\nvalue = 3249.0"] ;
154 -> 158 ;
159 [label="dateRow <= 2013.3\nmse = 29640.4\nsamples = 64\nvalue = 3475.1"] ;
141 -> 159 ;
160 [label="dateRow <= 2013.3\nmse = 1422.9\nsamples = 3\nvalue = 3605.9"] ;
159 -> 160 ;
161 [label="mse = 0.0\nsamples = 1\nvalue = 3696.0"] ;
160 -> 161 ;
162 [label="Temp_Avg <= 34.5\nmse = 300.0\nsamples = 2\nvalue = 3593.0"] ;
160 -> 162 ;
163 [label="mse = 0.0\nsamples = 1\nvalue = 3613.0"] ;
162 -> 163 ;
164 [label="mse = 0.0\nsamples = 1\nvalue = 3578.0"] ;
162 -> 164 ;
165 [label="dateRow <= 2013.5\nmse = 30471.2\nsamples = 61\nvalue = 3463.9"] ;
159 -> 165 ;
166 [label="Temp_Avg <= 35.5\nmse = 14714.0\nsamples = 7\nvalue = 3313.6"] ;
165 -> 166 ;
167 [label="dateRow <= 2013.4\nmse = 6796.2\nsamples = 3\nvalue = 3222.2"] ;
166 -> 167 ;
168 [label="dateRow <= 2013.4\nmse = 256.9\nsamples = 2\nvalue = 3175.3"] ;
167 -> 168 ;
169 [label="mse = 0.0\nsamples = 1\nvalue = 3164.0"] ;
168 -> 169 ;
170 [label="mse = 0.0\nsamples = 1\nvalue = 3198.0"] ;
168 -> 170 ;
171 [label="mse = 0.0\nsamples = 1\nvalue = 3363.0"] ;
167 -> 171 ;
172 [label="day <= 17.5\nmse = 5933.0\nsamples = 4\nvalue = 3405.0"] ;
166 -> 172 ;
173 [label="mse = 0.0\nsamples = 1\nvalue = 3526.0"] ;
172 -> 173 ;
174 [label="Temp_Avg <= 39.5\nmse = 1403.6\nsamples = 3\nvalue = 3364.7"] ;
172 -> 174 ;
175 [label="mse = 0.0\nsamples = 1\nvalue = 3312.0"] ;
174 -> 175 ;
176 [label="month_int <= 1.5\nmse = 25.0\nsamples = 2\nvalue = 3391.0"] ;
174 -> 176 ;
177 [label="mse = 0.0\nsamples = 1\nvalue = 3396.0"] ;
176 -> 177 ;
178 [label="mse = 0.0\nsamples = 1\nvalue = 3386.0"] ;
176 -> 178 ;
179 [label="Temp_Avg <= 31.0\nmse = 29628.7\nsamples = 54\nvalue = 3478.0"] ;
165 -> 179 ;
180 [label="day <= 21.5\nmse = 43880.1\nsamples = 4\nvalue = 3578.1"] ;
179 -> 180 ;
181 [label="day <= 17.5\nmse = 5.6\nsamples = 2\nvalue = 3867.3"] ;
180 -> 181 ;
182 [label="mse = 0.0\nsamples = 1\nvalue = 3864.0"] ;
181 -> 182 ;
183 [label="mse = 0.0\nsamples = 1\nvalue = 3869.0"] ;
181 -> 183 ;
184 [label="dateRow <= 2014.2\nmse = 3080.2\nsamples = 2\nvalue = 3433.5"] ;
180 -> 184 ;
185 [label="mse = 0.0\nsamples = 1\nvalue = 3489.0"] ;
184 -> 185 ;
186 [label="mse = 0.0\nsamples = 1\nvalue = 3378.0"] ;
184 -> 186 ;
187 [label="Temp_Avg <= 51.0\nmse = 26614.9\nsamples = 50\nvalue = 3466.2"] ;
179 -> 187 ;
188 [label="month_int <= 3.5\nmse = 23823.9\nsamples = 34\nvalue = 3437.9"] ;
187 -> 188 ;
189 [label="dateRow <= 2014.4\nmse = 22332.7\nsamples = 23\nvalue = 3477.0"] ;
188 -> 189 ;
190 [label="day <= 27.5\nmse = 20551.6\nsamples = 18\nvalue = 3447.7"] ;
189 -> 190 ;
191 [label="Temp_Avg <= 41.0\nmse = 17928.5\nsamples = 12\nvalue = 3403.0"] ;
190 -> 191 ;
192 [label="Temp_Avg <= 35.5\nmse = 17918.4\nsamples = 10\nvalue = 3432.4"] ;
191 -> 192 ;
193 [label="day <= 20.0\nmse = 22330.9\nsamples = 2\nvalue = 3265.7"] ;
192 -> 193 ;
194 [label="mse = 0.0\nsamples = 1\nvalue = 3160.0"] ;
193 -> 194 ;
195 [label="mse = 0.0\nsamples = 1\nvalue = 3477.0"] ;
193 -> 195 ;
196 [label="month_int <= 2.5\nmse = 9006.6\nsamples = 8\nvalue = 3470.8"] ;
192 -> 196 ;
197 [label="month_int <= 1.5\nmse = 2991.1\nsamples = 5\nvalue = 3517.3"] ;
196 -> 197 ;
198 [label="day <= 16.5\nmse = 1980.2\nsamples = 2\nvalue = 3599.5"] ;
197 -> 198 ;
199 [label="mse = 0.0\nsamples = 1\nvalue = 3555.0"] ;
198 -> 199 ;
200 [label="mse = 0.0\nsamples = 1\nvalue = 3644.0"] ;
198 -> 200 ;
201 [label="day <= 25.5\nmse = 799.8\nsamples = 3\nvalue = 3493.9"] ;
197 -> 201 ;
202 [label="dateRow <= 2013.9\nmse = 67.7\nsamples = 2\nvalue = 3517.8"] ;
201 -> 202 ;
203 [label="mse = 0.0\nsamples = 1\nvalue = 3532.0"] ;
202 -> 203 ;
204 [label="mse = 0.0\nsamples = 1\nvalue = 3513.0"] ;
202 -> 204 ;
205 [label="mse = 0.0\nsamples = 1\nvalue = 3462.0"] ;
201 -> 205 ;
206 [label="Temp_Avg <= 39.0\nmse = 6738.7\nsamples = 3\nvalue = 3366.2"] ;
196 -> 206 ;
207 [label="dateRow <= 2014.0\nmse = 117.6\nsamples = 2\nvalue = 3413.3"] ;
206 -> 207 ;
208 [label="mse = 0.0\nsamples = 1\nvalue = 3421.0"] ;
207 -> 208 ;
209 [label="mse = 0.0\nsamples = 1\nvalue = 3398.0"] ;
207 -> 209 ;
210 [label="mse = 0.0\nsamples = 1\nvalue = 3225.0"] ;
206 -> 210 ;
211 [label="day <= 26.5\nmse = 652.7\nsamples = 2\nvalue = 3285.2"] ;
191 -> 211 ;
212 [label="mse = 0.0\nsamples = 1\nvalue = 3241.0"] ;
211 -> 212 ;
213 [label="mse = 0.0\nsamples = 1\nvalue = 3300.0"] ;
211 -> 213 ;
214 [label="month_int <= 2.0\nmse = 15055.2\nsamples = 6\nvalue = 3529.1"] ;
190 -> 214 ;
215 [label="Temp_Avg <= 44.5\nmse = 3713.2\nsamples = 4\nvalue = 3594.6"] ;
214 -> 215 ;
216 [label="Temp_Avg <= 38.0\nmse = 229.7\nsamples = 2\nvalue = 3651.2"] ;
215 -> 216 ;
217 [label="mse = 0.0\nsamples = 1\nvalue = 3625.0"] ;
216 -> 217 ;
218 [label="mse = 0.0\nsamples = 1\nvalue = 3660.0"] ;
216 -> 218 ;
219 [label="dateRow <= 2013.6\nmse = 784.0\nsamples = 2\nvalue = 3538.0"] ;
215 -> 219 ;
220 [label="mse = 0.0\nsamples = 1\nvalue = 3566.0"] ;
219 -> 220 ;
221 [label="mse = 0.0\nsamples = 1\nvalue = 3510.0"] ;
219 -> 221 ;
222 [label="dateRow <= 2013.6\nmse = 3307.6\nsamples = 2\nvalue = 3354.3"] ;
214 -> 222 ;
223 [label="mse = 0.0\nsamples = 1\nvalue = 3395.0"] ;
222 -> 223 ;
224 [label="mse = 0.0\nsamples = 1\nvalue = 3273.0"] ;
222 -> 224 ;
225 [label="month_int <= 2.5\nmse = 9558.4\nsamples = 5\nvalue = 3606.9"] ;
189 -> 225 ;
226 [label="Temp_Avg <= 41.5\nmse = 727.4\nsamples = 3\nvalue = 3551.8"] ;
225 -> 226 ;
227 [label="month_int <= 1.5\nmse = 4.7\nsamples = 2\nvalue = 3565.2"] ;
226 -> 227 ;
228 [label="mse = 0.0\nsamples = 1\nvalue = 3569.0"] ;
227 -> 228 ;
229 [label="mse = 0.0\nsamples = 1\nvalue = 3564.0"] ;
227 -> 229 ;
230 [label="mse = 0.0\nsamples = 1\nvalue = 3498.0"] ;
226 -> 230 ;
231 [label="dateRow <= 2014.4\nmse = 5112.2\nsamples = 2\nvalue = 3744.5"] ;
225 -> 231 ;
232 [label="mse = 0.0\nsamples = 1\nvalue = 3673.0"] ;
231 -> 232 ;
233 [label="mse = 0.0\nsamples = 1\nvalue = 3816.0"] ;
231 -> 233 ;
234 [label="day <= 17.0\nmse = 12425.5\nsamples = 11\nvalue = 3331.6"] ;
188 -> 234 ;
235 [label="mse = 0.0\nsamples = 1\nvalue = 3491.0"] ;
234 -> 235 ;
236 [label="Temp_Avg <= 46.5\nmse = 9558.6\nsamples = 10\nvalue = 3305.1"] ;
234 -> 236 ;
237 [label="Temp_Avg <= 33.0\nmse = 5855.8\nsamples = 7\nvalue = 3271.6"] ;
236 -> 237 ;
238 [label="mse = 0.0\nsamples = 1\nvalue = 3124.0"] ;
237 -> 238 ;
239 [label="Temp_Avg <= 45.5\nmse = 3526.0\nsamples = 6\nvalue = 3290.0"] ;
237 -> 239 ;
240 [label="day <= 29.5\nmse = 1098.1\nsamples = 5\nvalue = 3309.1"] ;
239 -> 240 ;
241 [label="month_int <= 11.5\nmse = 488.2\nsamples = 4\nvalue = 3298.5"] ;
240 -> 241 ;
242 [label="Temp_Avg <= 42.5\nmse = 79.7\nsamples = 3\nvalue = 3313.2"] ;
241 -> 242 ;
243 [label="month_int <= 7.5\nmse = 6.2\nsamples = 2\nvalue = 3304.5"] ;
242 -> 243 ;
244 [label="mse = 0.0\nsamples = 1\nvalue = 3307.0"] ;
243 -> 244 ;
245 [label="mse = 0.0\nsamples = 1\nvalue = 3302.0"] ;
243 -> 245 ;
246 [label="mse = 0.0\nsamples = 1\nvalue = 3322.0"] ;
242 -> 246 ;
247 [label="mse = 0.0\nsamples = 1\nvalue = 3269.0"] ;
241 -> 247 ;
248 [label="mse = 0.0\nsamples = 1\nvalue = 3373.0"] ;
240 -> 248 ;
249 [label="mse = 0.0\nsamples = 1\nvalue = 3156.0"] ;
239 -> 249 ;
250 [label="Temp_Avg <= 47.5\nmse = 7177.6\nsamples = 3\nvalue = 3405.7"] ;
236 -> 250 ;
251 [label="mse = 0.0\nsamples = 1\nvalue = 3523.0"] ;
250 -> 251 ;
252 [label="Temp_Avg <= 49.0\nmse = 441.0\nsamples = 2\nvalue = 3347.0"] ;
250 -> 252 ;
253 [label="mse = 0.0\nsamples = 1\nvalue = 3368.0"] ;
252 -> 253 ;
254 [label="mse = 0.0\nsamples = 1\nvalue = 3326.0"] ;
252 -> 254 ;
255 [label="day <= 20.5\nmse = 27162.1\nsamples = 16\nvalue = 3527.5"] ;
187 -> 255 ;
256 [label="Temp_Avg <= 54.0\nmse = 18434.8\nsamples = 5\nvalue = 3369.0"] ;
255 -> 256 ;
257 [label="year <= 2013.5\nmse = 2070.2\nsamples = 2\nvalue = 3227.5"] ;
256 -> 257 ;
258 [label="mse = 0.0\nsamples = 1\nvalue = 3273.0"] ;
257 -> 258 ;
259 [label="mse = 0.0\nsamples = 1\nvalue = 3182.0"] ;
257 -> 259 ;
260 [label="month_int <= 10.5\nmse = 7097.6\nsamples = 3\nvalue = 3463.3"] ;
256 -> 260 ;
261 [label="dateRow <= 2013.6\nmse = 1681.0\nsamples = 2\nvalue = 3518.0"] ;
260 -> 261 ;
262 [label="mse = 0.0\nsamples = 1\nvalue = 3559.0"] ;
261 -> 262 ;
263 [label="mse = 0.0\nsamples = 1\nvalue = 3477.0"] ;
261 -> 263 ;
264 [label="mse = 0.0\nsamples = 1\nvalue = 3354.0"] ;
260 -> 264 ;
265 [label="dateRow <= 2013.9\nmse = 21103.5\nsamples = 11\nvalue = 3569.3"] ;
255 -> 265 ;
266 [label="day <= 25.0\nmse = 20096.5\nsamples = 8\nvalue = 3512.6"] ;
265 -> 266 ;
267 [label="month_int <= 7.0\nmse = 2106.0\nsamples = 5\nvalue = 3610.0"] ;
266 -> 267 ;
268 [label="month_int <= 4.5\nmse = 32.0\nsamples = 2\nvalue = 3571.0"] ;
267 -> 268 ;
269 [label="mse = 0.0\nsamples = 1\nvalue = 3563.0"] ;
268 -> 269 ;
270 [label="mse = 0.0\nsamples = 1\nvalue = 3575.0"] ;
268 -> 270 ;
271 [label="day <= 21.5\nmse = 1665.2\nsamples = 3\nvalue = 3639.2"] ;
267 -> 271 ;
272 [label="mse = 0.0\nsamples = 1\nvalue = 3603.0"] ;
271 -> 272 ;
273 [label="dateRow <= 2013.8\nmse = 702.2\nsamples = 2\nvalue = 3675.5"] ;
271 -> 273 ;
274 [label="mse = 0.0\nsamples = 1\nvalue = 3702.0"] ;
273 -> 274 ;
275 [label="mse = 0.0\nsamples = 1\nvalue = 3649.0"] ;
273 -> 275 ;
276 [label="month_int <= 4.5\nmse = 17112.7\nsamples = 3\nvalue = 3399.0"] ;
266 -> 276 ;
277 [label="mse = 0.0\nsamples = 1\nvalue = 3579.0"] ;
276 -> 277 ;
278 [label="day <= 26.5\nmse = 1369.0\nsamples = 2\nvalue = 3309.0"] ;
276 -> 278 ;
279 [label="mse = 0.0\nsamples = 1\nvalue = 3346.0"] ;
278 -> 279 ;
280 [label="mse = 0.0\nsamples = 1\nvalue = 3272.0"] ;
278 -> 280 ;
281 [label="year <= 2013.5\nmse = 1268.0\nsamples = 3\nvalue = 3692.0"] ;
265 -> 281 ;
282 [label="month_int <= 11.0\nmse = 27.0\nsamples = 2\nvalue = 3717.0"] ;
281 -> 282 ;
283 [label="mse = 0.0\nsamples = 1\nvalue = 3720.0"] ;
282 -> 283 ;
284 [label="mse = 0.0\nsamples = 1\nvalue = 3708.0"] ;
282 -> 284 ;
285 [label="mse = 0.0\nsamples = 1\nvalue = 3642.0"] ;
281 -> 285 ;
286 [label="day <= 5.0\nmse = 62982.6\nsamples = 71\nvalue = 3712.1"] ;
2 -> 286 ;
287 [label="Temp_Avg <= 33.5\nmse = 70732.1\nsamples = 11\nvalue = 3981.4"] ;
286 -> 287 ;
288 [label="day <= 2.0\nmse = 66049.0\nsamples = 2\nvalue = 4326.0"] ;
287 -> 288 ;
289 [label="mse = 0.0\nsamples = 1\nvalue = 4583.0"] ;
288 -> 289 ;
290 [label="mse = 0.0\nsamples = 1\nvalue = 4069.0"] ;
288 -> 290 ;
291 [label="dateRow <= 2014.5\nmse = 46064.9\nsamples = 9\nvalue = 3918.7"] ;
287 -> 291 ;
292 [label="mse = 0.0\nsamples = 1\nvalue = 4248.0"] ;
291 -> 292 ;
293 [label="dateRow <= 2015.1\nmse = 26854.0\nsamples = 8\nvalue = 3845.6"] ;
291 -> 293 ;
294 [label="dateRow <= 2014.5\nmse = 10300.8\nsamples = 3\nvalue = 3698.5"] ;
293 -> 294 ;
295 [label="mse = 0.0\nsamples = 1\nvalue = 3872.0"] ;
294 -> 295 ;
296 [label="year <= 2014.5\nmse = 355.6\nsamples = 2\nvalue = 3640.7"] ;
294 -> 296 ;
297 [label="mse = 0.0\nsamples = 1\nvalue = 3654.0"] ;
296 -> 297 ;
298 [label="mse = 0.0\nsamples = 1\nvalue = 3614.0"] ;
296 -> 298 ;
299 [label="day <= 3.0\nmse = 8956.2\nsamples = 5\nvalue = 3963.2"] ;
293 -> 299 ;
300 [label="Temp_Avg <= 53.5\nmse = 7358.8\nsamples = 4\nvalue = 3935.5"] ;
299 -> 300 ;
301 [label="Temp_Avg <= 47.5\nmse = 1369.0\nsamples = 2\nvalue = 3857.0"] ;
300 -> 301 ;
302 [label="mse = 0.0\nsamples = 1\nvalue = 3820.0"] ;
301 -> 302 ;
303 [label="mse = 0.0\nsamples = 1\nvalue = 3894.0"] ;
301 -> 303 ;
304 [label="day <= 1.5\nmse = 1024.0\nsamples = 2\nvalue = 4014.0"] ;
300 -> 304 ;
305 [label="mse = 0.0\nsamples = 1\nvalue = 4046.0"] ;
304 -> 305 ;
306 [label="mse = 0.0\nsamples = 1\nvalue = 3982.0"] ;
304 -> 306 ;
307 [label="mse = 0.0\nsamples = 1\nvalue = 4074.0"] ;
299 -> 307 ;
308 [label="day <= 30.5\nmse = 49541.0\nsamples = 60\nvalue = 3672.3"] ;
286 -> 308 ;
309 [label="day <= 28.5\nmse = 47122.4\nsamples = 59\nvalue = 3660.4"] ;
308 -> 309 ;
310 [label="Temp_Avg <= 56.5\nmse = 44523.2\nsamples = 52\nvalue = 3683.6"] ;
309 -> 310 ;
311 [label="Temp_Avg <= 45.5\nmse = 44696.5\nsamples = 47\nvalue = 3703.7"] ;
310 -> 311 ;
312 [label="month_int <= 11.5\nmse = 39655.2\nsamples = 32\nvalue = 3643.8"] ;
311 -> 312 ;
313 [label="day <= 13.5\nmse = 26987.0\nsamples = 24\nvalue = 3602.6"] ;
312 -> 313 ;
314 [label="Temp_Avg <= 38.5\nmse = 23382.5\nsamples = 10\nvalue = 3689.8"] ;
313 -> 314 ;
315 [label="Temp_Avg <= 35.0\nmse = 13091.5\nsamples = 7\nvalue = 3798.9"] ;
314 -> 315 ;
316 [label="dateRow <= 2015.2\nmse = 7129.6\nsamples = 6\nvalue = 3771.7"] ;
315 -> 316 ;
317 [label="mse = 0.0\nsamples = 1\nvalue = 3561.0"] ;
316 -> 317 ;
318 [label="month_int <= 1.5\nmse = 1779.8\nsamples = 5\nvalue = 3798.0"] ;
316 -> 318 ;
319 [label="mse = 0.0\nsamples = 1\nvalue = 3715.0"] ;
318 -> 319 ;
320 [label="day <= 8.0\nmse = 909.3\nsamples = 4\nvalue = 3809.9"] ;
318 -> 320 ;
321 [label="mse = 0.0\nsamples = 1\nvalue = 3781.0"] ;
320 -> 321 ;
322 [label="Temp_Avg <= 30.0\nmse = 498.2\nsamples = 3\nvalue = 3831.5"] ;
320 -> 322 ;
323 [label="Temp_Avg <= 21.0\nmse = 5.6\nsamples = 2\nvalue = 3818.7"] ;
322 -> 323 ;
324 [label="mse = 0.0\nsamples = 1\nvalue = 3817.0"] ;
323 -> 324 ;
325 [label="mse = 0.0\nsamples = 1\nvalue = 3822.0"] ;
323 -> 325 ;
326 [label="mse = 0.0\nsamples = 1\nvalue = 3870.0"] ;
322 -> 326 ;
327 [label="mse = 0.0\nsamples = 1\nvalue = 4044.0"] ;
315 -> 327 ;
328 [label="year <= 2014.5\nmse = 6891.4\nsamples = 3\nvalue = 3568.6"] ;
314 -> 328 ;
329 [label="mse = 0.0\nsamples = 1\nvalue = 3681.0"] ;
328 -> 329 ;
330 [label="month_int <= 3.5\nmse = 854.2\nsamples = 2\nvalue = 3512.3"] ;
328 -> 330 ;
331 [label="mse = 0.0\nsamples = 1\nvalue = 3471.0"] ;
330 -> 331 ;
332 [label="mse = 0.0\nsamples = 1\nvalue = 3533.0"] ;
330 -> 332 ;
333 [label="day <= 25.5\nmse = 11519.9\nsamples = 14\nvalue = 3499.1"] ;
313 -> 333 ;
334 [label="Temp_Avg <= 34.5\nmse = 10411.1\nsamples = 10\nvalue = 3536.2"] ;
333 -> 334 ;
335 [label="Temp_Avg <= 24.5\nmse = 6625.9\nsamples = 7\nvalue = 3580.7"] ;
334 -> 335 ;
336 [label="dateRow <= 2015.3\nmse = 6978.7\nsamples = 3\nvalue = 3521.0"] ;
335 -> 336 ;
337 [label="mse = 0.0\nsamples = 1\nvalue = 3639.0"] ;
336 -> 337 ;
338 [label="Temp_Avg <= 19.5\nmse = 25.0\nsamples = 2\nvalue = 3462.0"] ;
336 -> 338 ;
339 [label="mse = 0.0\nsamples = 1\nvalue = 3467.0"] ;
338 -> 339 ;
340 [label="mse = 0.0\nsamples = 1\nvalue = 3457.0"] ;
338 -> 340 ;
341 [label="month_int <= 7.0\nmse = 1681.2\nsamples = 4\nvalue = 3625.5"] ;
335 -> 341 ;
342 [label="month_int <= 2.0\nmse = 121.0\nsamples = 2\nvalue = 3665.0"] ;
341 -> 342 ;
343 [label="mse = 0.0\nsamples = 1\nvalue = 3654.0"] ;
342 -> 343 ;
344 [label="mse = 0.0\nsamples = 1\nvalue = 3676.0"] ;
342 -> 344 ;
345 [label="dateRow <= 2014.8\nmse = 121.0\nsamples = 2\nvalue = 3586.0"] ;
341 -> 345 ;
346 [label="mse = 0.0\nsamples = 1\nvalue = 3597.0"] ;
345 -> 346 ;
347 [label="mse = 0.0\nsamples = 1\nvalue = 3575.0"] ;
345 -> 347 ;
348 [label="Temp_Avg <= 38.5\nmse = 7491.2\nsamples = 3\nvalue = 3458.2"] ;
334 -> 348 ;
349 [label="Temp_Avg <= 37.0\nmse = 1058.0\nsamples = 2\nvalue = 3411.0"] ;
348 -> 349 ;
350 [label="mse = 0.0\nsamples = 1\nvalue = 3457.0"] ;
349 -> 350 ;
351 [label="mse = 0.0\nsamples = 1\nvalue = 3388.0"] ;
349 -> 351 ;
352 [label="mse = 0.0\nsamples = 1\nvalue = 3600.0"] ;
348 -> 352 ;
353 [label="Temp_Avg <= 21.5\nmse = 4259.4\nsamples = 4\nvalue = 3417.4"] ;
333 -> 353 ;
354 [label="month_int <= 1.5\nmse = 5.6\nsamples = 2\nvalue = 3470.7"] ;
353 -> 354 ;
355 [label="mse = 0.0\nsamples = 1\nvalue = 3474.0"] ;
354 -> 355 ;
356 [label="mse = 0.0\nsamples = 1\nvalue = 3469.0"] ;
354 -> 356 ;
357 [label="month_int <= 6.5\nmse = 0.2\nsamples = 2\nvalue = 3337.5"] ;
353 -> 357 ;
358 [label="mse = 0.0\nsamples = 1\nvalue = 3337.0"] ;
357 -> 358 ;
359 [label="mse = 0.0\nsamples = 1\nvalue = 3338.0"] ;
357 -> 359 ;
360 [label="day <= 7.5\nmse = 55180.5\nsamples = 8\nvalue = 3824.0"] ;
312 -> 360 ;
361 [label="day <= 6.5\nmse = 20449.0\nsamples = 2\nvalue = 3494.0"] ;
360 -> 361 ;
362 [label="mse = 0.0\nsamples = 1\nvalue = 3637.0"] ;
361 -> 362 ;
363 [label="mse = 0.0\nsamples = 1\nvalue = 3351.0"] ;
361 -> 363 ;
364 [label="dateRow <= 2014.7\nmse = 18357.7\nsamples = 6\nvalue = 3934.0"] ;
360 -> 364 ;
365 [label="dateRow <= 2014.7\nmse = 11768.7\nsamples = 3\nvalue = 3845.0"] ;
364 -> 365 ;
366 [label="day <= 10.0\nmse = 10302.2\nsamples = 2\nvalue = 3894.5"] ;
365 -> 366 ;
367 [label="mse = 0.0\nsamples = 1\nvalue = 3793.0"] ;
366 -> 367 ;
368 [label="mse = 0.0\nsamples = 1\nvalue = 3996.0"] ;
366 -> 368 ;
369 [label="mse = 0.0\nsamples = 1\nvalue = 3746.0"] ;
365 -> 369 ;
370 [label="day <= 16.5\nmse = 9104.7\nsamples = 3\nvalue = 4023.0"] ;
364 -> 370 ;
371 [label="mse = 0.0\nsamples = 1\nvalue = 4126.0"] ;
370 -> 371 ;
372 [label="Temp_Avg <= 37.5\nmse = 5700.2\nsamples = 2\nvalue = 3971.5"] ;
370 -> 372 ;
373 [label="mse = 0.0\nsamples = 1\nvalue = 4047.0"] ;
372 -> 373 ;
374 [label="mse = 0.0\nsamples = 1\nvalue = 3896.0"] ;
372 -> 374 ;
375 [label="month_int <= 3.5\nmse = 37268.3\nsamples = 15\nvalue = 3802.8"] ;
311 -> 375 ;
376 [label="day <= 9.5\nmse = 24424.7\nsamples = 3\nvalue = 4082.0"] ;
375 -> 376 ;
377 [label="mse = 0.0\nsamples = 1\nvalue = 4303.0"] ;
376 -> 377 ;
378 [label="year <= 2014.5\nmse = 6.2\nsamples = 2\nvalue = 3971.5"] ;
376 -> 378 ;
379 [label="mse = 0.0\nsamples = 1\nvalue = 3969.0"] ;
378 -> 379 ;
380 [label="mse = 0.0\nsamples = 1\nvalue = 3974.0"] ;
378 -> 380 ;
381 [label="day <= 25.5\nmse = 27453.4\nsamples = 12\nvalue = 3766.4"] ;
375 -> 381 ;
382 [label="dateRow <= 2014.6\nmse = 15868.9\nsamples = 9\nvalue = 3695.5"] ;
381 -> 382 ;
383 [label="day <= 9.5\nmse = 973.7\nsamples = 3\nvalue = 3556.2"] ;
382 -> 383 ;
384 [label="mse = 0.0\nsamples = 1\nvalue = 3610.0"] ;
383 -> 384 ;
385 [label="Temp_Avg <= 54.0\nmse = 14.2\nsamples = 2\nvalue = 3538.3"] ;
383 -> 385 ;
386 [label="mse = 0.0\nsamples = 1\nvalue = 3533.0"] ;
385 -> 386 ;
387 [label="mse = 0.0\nsamples = 1\nvalue = 3541.0"] ;
385 -> 387 ;
388 [label="dateRow <= 2014.8\nmse = 11674.8\nsamples = 6\nvalue = 3746.1"] ;
382 -> 388 ;
389 [label="dateRow <= 2014.7\nmse = 1291.7\nsamples = 2\nvalue = 3882.8"] ;
388 -> 389 ;
390 [label="mse = 0.0\nsamples = 1\nvalue = 3945.0"] ;
389 -> 390 ;
391 [label="mse = 0.0\nsamples = 1\nvalue = 3862.0"] ;
389 -> 391 ;
392 [label="Temp_Avg <= 49.5\nmse = 838.0\nsamples = 4\nvalue = 3668.0"] ;
388 -> 392 ;
393 [label="mse = 0.0\nsamples = 1\nvalue = 3735.0"] ;
392 -> 393 ;
394 [label="year <= 2014.5\nmse = 104.8\nsamples = 3\nvalue = 3656.8"] ;
392 -> 394 ;
395 [label="month_int <= 11.0\nmse = 7.8\nsamples = 2\nvalue = 3652.4"] ;
394 -> 395 ;
396 [label="mse = 0.0\nsamples = 1\nvalue = 3651.0"] ;
395 -> 396 ;
397 [label="mse = 0.0\nsamples = 1\nvalue = 3658.0"] ;
395 -> 397 ;
398 [label="mse = 0.0\nsamples = 1\nvalue = 3679.0"] ;
394 -> 398 ;
399 [label="dateRow <= 2014.9\nmse = 22024.5\nsamples = 3\nvalue = 3899.5"] ;
381 -> 399 ;
400 [label="month_int <= 7.0\nmse = 4653.3\nsamples = 2\nvalue = 3950.1"] ;
399 -> 400 ;
401 [label="mse = 0.0\nsamples = 1\nvalue = 3907.0"] ;
400 -> 401 ;
402 [label="mse = 0.0\nsamples = 1\nvalue = 4058.0"] ;
400 -> 402 ;
403 [label="mse = 0.0\nsamples = 1\nvalue = 3545.0"] ;
399 -> 403 ;
404 [label="dateRow <= 2014.8\nmse = 9354.1\nsamples = 5\nvalue = 3509.9"] ;
310 -> 404 ;
405 [label="month_int <= 10.5\nmse = 1231.2\nsamples = 3\nvalue = 3469.5"] ;
404 -> 405 ;
406 [label="day <= 20.5\nmse = 82.7\nsamples = 2\nvalue = 3493.8"] ;
405 -> 406 ;
407 [label="mse = 0.0\nsamples = 1\nvalue = 3478.0"] ;
406 -> 407 ;
408 [label="mse = 0.0\nsamples = 1\nvalue = 3499.0"] ;
406 -> 408 ;
409 [label="mse = 0.0\nsamples = 1\nvalue = 3421.0"] ;
405 -> 409 ;
410 [label="dateRow <= 2014.8\nmse = 14161.0\nsamples = 2\nvalue = 3631.0"] ;
404 -> 410 ;
411 [label="mse = 0.0\nsamples = 1\nvalue = 3750.0"] ;
410 -> 411 ;
412 [label="mse = 0.0\nsamples = 1\nvalue = 3512.0"] ;
410 -> 412 ;
413 [label="Temp_Avg <= 49.5\nmse = 17059.0\nsamples = 7\nvalue = 3437.0"] ;
309 -> 413 ;
414 [label="day <= 29.5\nmse = 10974.5\nsamples = 5\nvalue = 3386.8"] ;
413 -> 414 ;
415 [label="Temp_Avg <= 42.0\nmse = 20736.0\nsamples = 2\nvalue = 3308.0"] ;
414 -> 415 ;
416 [label="mse = 0.0\nsamples = 1\nvalue = 3164.0"] ;
415 -> 416 ;
417 [label="mse = 0.0\nsamples = 1\nvalue = 3452.0"] ;
415 -> 417 ;
418 [label="Temp_Avg <= 37.5\nmse = 1432.7\nsamples = 3\nvalue = 3426.2"] ;
414 -> 418 ;
419 [label="dateRow <= 2014.8\nmse = 90.2\nsamples = 2\nvalue = 3463.5"] ;
418 -> 419 ;
420 [label="mse = 0.0\nsamples = 1\nvalue = 3454.0"] ;
419 -> 420 ;
421 [label="mse = 0.0\nsamples = 1\nvalue = 3473.0"] ;
419 -> 421 ;
422 [label="mse = 0.0\nsamples = 1\nvalue = 3389.0"] ;
418 -> 422 ;
423 [label="dateRow <= 2014.6\nmse = 5112.2\nsamples = 2\nvalue = 3587.5"] ;
413 -> 423 ;
424 [label="mse = 0.0\nsamples = 1\nvalue = 3516.0"] ;
423 -> 424 ;
425 [label="mse = 0.0\nsamples = 1\nvalue = 3659.0"] ;
423 -> 425 ;
426 [label="mse = 0.0\nsamples = 1\nvalue = 4010.0"] ;
308 -> 426 ;
427 [label="Temp_Avg <= 78.5\nmse = 39505.1\nsamples = 169\nvalue = 3788.1"] ;
1 -> 427 ;
428 [label="year <= 2013.5\nmse = 30736.0\nsamples = 141\nvalue = 3746.5"] ;
427 -> 428 ;
429 [label="month_int <= 7.5\nmse = 30334.2\nsamples = 59\nvalue = 3668.7"] ;
428 -> 429 ;
430 [label="day <= 25.0\nmse = 25978.1\nsamples = 27\nvalue = 3785.3"] ;
429 -> 430 ;
431 [label="day <= 6.0\nmse = 19104.1\nsamples = 25\nvalue = 3804.9"] ;
430 -> 431 ;
432 [label="day <= 2.5\nmse = 22357.7\nsamples = 5\nvalue = 3883.7"] ;
431 -> 432 ;
433 [label="day <= 1.5\nmse = 135.4\nsamples = 3\nvalue = 3779.0"] ;
432 -> 433 ;
434 [label="mse = 0.0\nsamples = 1\nvalue = 3791.0"] ;
433 -> 434 ;
435 [label="dateRow <= 2013.3\nmse = 48.0\nsamples = 2\nvalue = 3770.0"] ;
433 -> 435 ;
436 [label="mse = 0.0\nsamples = 1\nvalue = 3774.0"] ;
435 -> 436 ;
437 [label="mse = 0.0\nsamples = 1\nvalue = 3758.0"] ;
435 -> 437 ;
438 [label="Temp_Avg <= 69.0\nmse = 8464.0\nsamples = 2\nvalue = 4067.0"] ;
432 -> 438 ;
439 [label="mse = 0.0\nsamples = 1\nvalue = 3975.0"] ;
438 -> 439 ;
440 [label="mse = 0.0\nsamples = 1\nvalue = 4159.0"] ;
438 -> 440 ;
441 [label="Temp_Avg <= 75.0\nmse = 14619.1\nsamples = 20\nvalue = 3775.0"] ;
431 -> 441 ;
442 [label="dateRow <= 2013.6\nmse = 10940.3\nsamples = 19\nvalue = 3763.0"] ;
441 -> 442 ;
443 [label="Temp_Avg <= 72.5\nmse = 9823.9\nsamples = 18\nvalue = 3755.6"] ;
442 -> 443 ;
444 [label="Temp_Avg <= 64.0\nmse = 7438.3\nsamples = 17\nvalue = 3770.9"] ;
443 -> 444 ;
445 [label="month_int <= 5.5\nmse = 8807.5\nsamples = 6\nvalue = 3717.5"] ;
444 -> 445 ;
446 [label="day <= 16.0\nmse = 390.6\nsamples = 3\nvalue = 3778.2"] ;
445 -> 446 ;
447 [label="month_int <= 4.5\nmse = 0.2\nsamples = 2\nvalue = 3794.3"] ;
446 -> 447 ;
448 [label="mse = 0.0\nsamples = 1\nvalue = 3795.0"] ;
447 -> 448 ;
449 [label="mse = 0.0\nsamples = 1\nvalue = 3794.0"] ;
447 -> 449 ;
450 [label="mse = 0.0\nsamples = 1\nvalue = 3754.0"] ;
446 -> 450 ;
451 [label="day <= 13.5\nmse = 6460.2\nsamples = 3\nvalue = 3616.3"] ;
445 -> 451 ;
452 [label="dateRow <= 2013.4\nmse = 3660.2\nsamples = 2\nvalue = 3571.5"] ;
451 -> 452 ;
453 [label="mse = 0.0\nsamples = 1\nvalue = 3632.0"] ;
452 -> 453 ;
454 [label="mse = 0.0\nsamples = 1\nvalue = 3511.0"] ;
452 -> 454 ;
455 [label="mse = 0.0\nsamples = 1\nvalue = 3706.0"] ;
451 -> 455 ;
456 [label="Temp_Avg <= 65.5\nmse = 4819.1\nsamples = 11\nvalue = 3796.1"] ;
444 -> 456 ;
457 [label="dateRow <= 2013.4\nmse = 8556.2\nsamples = 2\nvalue = 3917.5"] ;
456 -> 457 ;
458 [label="mse = 0.0\nsamples = 1\nvalue = 3825.0"] ;
457 -> 458 ;
459 [label="mse = 0.0\nsamples = 1\nvalue = 4010.0"] ;
457 -> 459 ;
460 [label="dateRow <= 2013.4\nmse = 2092.2\nsamples = 9\nvalue = 3779.9"] ;
456 -> 460 ;
461 [label="month_int <= 4.5\nmse = 4233.6\nsamples = 3\nvalue = 3720.3"] ;
460 -> 461 ;
462 [label="mse = 0.0\nsamples = 1\nvalue = 3803.0"] ;
461 -> 462 ;
463 [label="day <= 9.5\nmse = 1225.0\nsamples = 2\nvalue = 3679.0"] ;
461 -> 463 ;
464 [label="mse = 0.0\nsamples = 1\nvalue = 3714.0"] ;
463 -> 464 ;
465 [label="mse = 0.0\nsamples = 1\nvalue = 3644.0"] ;
463 -> 465 ;
466 [label="day <= 16.0\nmse = 449.4\nsamples = 6\nvalue = 3794.8"] ;
460 -> 466 ;
467 [label="Temp_Avg <= 68.5\nmse = 169.0\nsamples = 4\nvalue = 3802.6"] ;
466 -> 467 ;
468 [label="mse = 0.0\nsamples = 1\nvalue = 3817.0"] ;
467 -> 468 ;
469 [label="dateRow <= 2013.4\nmse = 146.5\nsamples = 3\nvalue = 3799.0"] ;
467 -> 469 ;
470 [label="mse = 0.0\nsamples = 1\nvalue = 3804.0"] ;
469 -> 470 ;
471 [label="Temp_Avg <= 71.5\nmse = 243.0\nsamples = 2\nvalue = 3794.0"] ;
469 -> 471 ;
472 [label="mse = 0.0\nsamples = 1\nvalue = 3803.0"] ;
471 -> 472 ;
473 [label="mse = 0.0\nsamples = 1\nvalue = 3767.0"] ;
471 -> 473 ;
474 [label="month_int <= 5.5\nmse = 2.2\nsamples = 2\nvalue = 3755.5"] ;
466 -> 474 ;
475 [label="mse = 0.0\nsamples = 1\nvalue = 3754.0"] ;
474 -> 475 ;
476 [label="mse = 0.0\nsamples = 1\nvalue = 3757.0"] ;
474 -> 476 ;
477 [label="mse = 0.0\nsamples = 1\nvalue = 3564.0"] ;
443 -> 477 ;
478 [label="mse = 0.0\nsamples = 1\nvalue = 3962.0"] ;
442 -> 478 ;
479 [label="mse = 0.0\nsamples = 1\nvalue = 4112.0"] ;
441 -> 479 ;
480 [label="month_int <= 5.5\nmse = 1482.2\nsamples = 2\nvalue = 3392.5"] ;
430 -> 480 ;
481 [label="mse = 0.0\nsamples = 1\nvalue = 3431.0"] ;
480 -> 481 ;
482 [label="mse = 0.0\nsamples = 1\nvalue = 3354.0"] ;
480 -> 482 ;
483 [label="Temp_Avg <= 75.5\nmse = 16167.1\nsamples = 32\nvalue = 3582.9"] ;
429 -> 483 ;
484 [label="day <= 3.5\nmse = 14597.3\nsamples = 25\nvalue = 3555.0"] ;
483 -> 484 ;
485 [label="Temp_Avg <= 73.0\nmse = 14358.2\nsamples = 4\nvalue = 3745.5"] ;
484 -> 485 ;
486 [label="day <= 2.5\nmse = 9605.6\nsamples = 3\nvalue = 3794.3"] ;
485 -> 486 ;
487 [label="month_int <= 10.5\nmse = 1406.2\nsamples = 2\nvalue = 3728.5"] ;
486 -> 487 ;
488 [label="mse = 0.0\nsamples = 1\nvalue = 3766.0"] ;
487 -> 488 ;
489 [label="mse = 0.0\nsamples = 1\nvalue = 3691.0"] ;
487 -> 489 ;
490 [label="mse = 0.0\nsamples = 1\nvalue = 3926.0"] ;
486 -> 490 ;
491 [label="mse = 0.0\nsamples = 1\nvalue = 3599.0"] ;
485 -> 491 ;
492 [label="Temp_Avg <= 63.5\nmse = 10628.4\nsamples = 21\nvalue = 3535.9"] ;
484 -> 492 ;
493 [label="Temp_Avg <= 60.5\nmse = 7603.0\nsamples = 5\nvalue = 3471.0"] ;
492 -> 493 ;
494 [label="mse = 0.0\nsamples = 1\nvalue = 3575.0"] ;
493 -> 494 ;
495 [label="dateRow <= 2013.6\nmse = 6123.8\nsamples = 4\nvalue = 3445.0"] ;
493 -> 495 ;
496 [label="month_int <= 9.5\nmse = 1250.0\nsamples = 2\nvalue = 3525.0"] ;
495 -> 496 ;
497 [label="mse = 0.0\nsamples = 1\nvalue = 3475.0"] ;
496 -> 497 ;
498 [label="mse = 0.0\nsamples = 1\nvalue = 3550.0"] ;
496 -> 498 ;
499 [label="dateRow <= 2013.7\nmse = 2904.0\nsamples = 2\nvalue = 3397.0"] ;
495 -> 499 ;
500 [label="mse = 0.0\nsamples = 1\nvalue = 3331.0"] ;
499 -> 500 ;
501 [label="mse = 0.0\nsamples = 1\nvalue = 3441.0"] ;
499 -> 501 ;
502 [label="Temp_Avg <= 68.5\nmse = 9763.4\nsamples = 16\nvalue = 3557.6"] ;
492 -> 502 ;
503 [label="dateRow <= 2013.6\nmse = 8838.0\nsamples = 7\nvalue = 3618.9"] ;
502 -> 503 ;
504 [label="month_int <= 9.5\nmse = 3230.9\nsamples = 3\nvalue = 3529.3"] ;
503 -> 504 ;
505 [label="dateRow <= 2013.5\nmse = 6.2\nsamples = 2\nvalue = 3569.5"] ;
504 -> 505 ;
506 [label="mse = 0.0\nsamples = 1\nvalue = 3572.0"] ;
505 -> 506 ;
507 [label="mse = 0.0\nsamples = 1\nvalue = 3567.0"] ;
505 -> 507 ;
508 [label="mse = 0.0\nsamples = 1\nvalue = 3449.0"] ;
504 -> 508 ;
509 [label="Temp_Avg <= 67.5\nmse = 4505.2\nsamples = 4\nvalue = 3672.6"] ;
503 -> 509 ;
510 [label="month_int <= 11.0\nmse = 192.6\nsamples = 3\nvalue = 3606.2"] ;
509 -> 510 ;
511 [label="month_int <= 9.5\nmse = 43.6\nsamples = 2\nvalue = 3595.7"] ;
510 -> 511 ;
512 [label="mse = 0.0\nsamples = 1\nvalue = 3591.0"] ;
511 -> 512 ;
513 [label="mse = 0.0\nsamples = 1\nvalue = 3605.0"] ;
511 -> 513 ;
514 [label="mse = 0.0\nsamples = 1\nvalue = 3622.0"] ;
510 -> 514 ;
515 [label="mse = 0.0\nsamples = 1\nvalue = 3739.0"] ;
509 -> 515 ;
516 [label="dateRow <= 2013.4\nmse = 1616.0\nsamples = 9\nvalue = 3487.5"] ;
502 -> 516 ;
517 [label="mse = 0.0\nsamples = 1\nvalue = 3560.0"] ;
516 -> 517 ;
518 [label="month_int <= 8.5\nmse = 1304.8\nsamples = 8\nvalue = 3481.9"] ;
516 -> 518 ;
519 [label="day <= 9.0\nmse = 547.9\nsamples = 7\nvalue = 3490.1"] ;
518 -> 519 ;
520 [label="mse = 0.0\nsamples = 1\nvalue = 3473.0"] ;
519 -> 520 ;
521 [label="Temp_Avg <= 72.5\nmse = 603.0\nsamples = 6\nvalue = 3498.6"] ;
519 -> 521 ;
522 [label="day <= 16.5\nmse = 240.2\nsamples = 2\nvalue = 3467.5"] ;
521 -> 522 ;
523 [label="mse = 0.0\nsamples = 1\nvalue = 3483.0"] ;
522 -> 523 ;
524 [label="mse = 0.0\nsamples = 1\nvalue = 3452.0"] ;
522 -> 524 ;
525 [label="day <= 12.0\nmse = 293.3\nsamples = 4\nvalue = 3509.0"] ;
521 -> 525 ;
526 [label="mse = 0.0\nsamples = 1\nvalue = 3545.0"] ;
525 -> 526 ;
527 [label="day <= 16.0\nmse = 41.0\nsamples = 3\nvalue = 3501.8"] ;
525 -> 527 ;
528 [label="mse = 0.0\nsamples = 1\nvalue = 3495.0"] ;
527 -> 528 ;
529 [label="dateRow <= 2013.7\nmse = 36.8\nsamples = 2\nvalue = 3503.5"] ;
527 -> 529 ;
530 [label="mse = 0.0\nsamples = 1\nvalue = 3514.0"] ;
529 -> 530 ;
531 [label="mse = 0.0\nsamples = 1\nvalue = 3500.0"] ;
529 -> 531 ;
532 [label="mse = 0.0\nsamples = 1\nvalue = 3384.0"] ;
518 -> 532 ;
533 [label="dateRow <= 2013.4\nmse = 9928.5\nsamples = 7\nvalue = 3677.3"] ;
483 -> 533 ;
534 [label="mse = 0.0\nsamples = 1\nvalue = 3580.0"] ;
533 -> 534 ;
535 [label="day <= 23.0\nmse = 9214.2\nsamples = 6\nvalue = 3706.5"] ;
533 -> 535 ;
536 [label="dateRow <= 2013.5\nmse = 3655.0\nsamples = 4\nvalue = 3745.0"] ;
535 -> 536 ;
537 [label="day <= 7.0\nmse = 256.9\nsamples = 2\nvalue = 3820.3"] ;
536 -> 537 ;
538 [label="mse = 0.0\nsamples = 1\nvalue = 3843.0"] ;
537 -> 538 ;
539 [label="mse = 0.0\nsamples = 1\nvalue = 3809.0"] ;
537 -> 539 ;
540 [label="dateRow <= 2013.6\nmse = 245.8\nsamples = 2\nvalue = 3699.8"] ;
536 -> 540 ;
541 [label="mse = 0.0\nsamples = 1\nvalue = 3719.0"] ;
540 -> 541 ;
542 [label="mse = 0.0\nsamples = 1\nvalue = 3687.0"] ;
540 -> 542 ;
543 [label="day <= 27.5\nmse = 1806.2\nsamples = 2\nvalue = 3552.5"] ;
535 -> 543 ;
544 [label="mse = 0.0\nsamples = 1\nvalue = 3595.0"] ;
543 -> 544 ;
545 [label="mse = 0.0\nsamples = 1\nvalue = 3510.0"] ;
543 -> 545 ;
546 [label="dateRow <= 2014.8\nmse = 23796.7\nsamples = 82\nvalue = 3801.0"] ;
428 -> 546 ;
547 [label="day <= 21.5\nmse = 21102.9\nsamples = 75\nvalue = 3786.8"] ;
546 -> 547 ;
548 [label="dateRow <= 2014.4\nmse = 20745.1\nsamples = 54\nvalue = 3809.6"] ;
547 -> 548 ;
549 [label="dateRow <= 2014.3\nmse = 14720.6\nsamples = 10\nvalue = 3880.5"] ;
548 -> 549 ;
550 [label="dateRow <= 2014.3\nmse = 11211.2\nsamples = 3\nvalue = 3737.8"] ;
549 -> 550 ;
551 [label="day <= 2.0\nmse = 2738.0\nsamples = 2\nvalue = 3793.0"] ;
550 -> 551 ;
552 [label="mse = 0.0\nsamples = 1\nvalue = 3867.0"] ;
551 -> 552 ;
553 [label="mse = 0.0\nsamples = 1\nvalue = 3756.0"] ;
551 -> 553 ;
554 [label="mse = 0.0\nsamples = 1\nvalue = 3572.0"] ;
550 -> 554 ;
555 [label="Temp_Avg <= 74.5\nmse = 6833.7\nsamples = 7\nvalue = 3928.1"] ;
549 -> 555 ;
556 [label="Temp_Avg <= 64.5\nmse = 4129.6\nsamples = 4\nvalue = 3989.5"] ;
555 -> 556 ;
557 [label="mse = 0.0\nsamples = 1\nvalue = 3901.0"] ;
556 -> 557 ;
558 [label="Temp_Avg <= 71.5\nmse = 3075.8\nsamples = 3\nvalue = 4007.2"] ;
556 -> 558 ;
559 [label="Temp_Avg <= 69.5\nmse = 256.9\nsamples = 2\nvalue = 4051.3"] ;
558 -> 559 ;
560 [label="mse = 0.0\nsamples = 1\nvalue = 4074.0"] ;
559 -> 560 ;
561 [label="mse = 0.0\nsamples = 1\nvalue = 4040.0"] ;
559 -> 561 ;
562 [label="mse = 0.0\nsamples = 1\nvalue = 3941.0"] ;
558 -> 562 ;
563 [label="month_int <= 7.5\nmse = 1993.9\nsamples = 3\nvalue = 3866.7"] ;
555 -> 563 ;
564 [label="dateRow <= 2014.3\nmse = 1140.8\nsamples = 2\nvalue = 3891.5"] ;
563 -> 564 ;
565 [label="mse = 0.0\nsamples = 1\nvalue = 3872.0"] ;
564 -> 565 ;
566 [label="mse = 0.0\nsamples = 1\nvalue = 3950.0"] ;
564 -> 566 ;
567 [label="mse = 0.0\nsamples = 1\nvalue = 3817.0"] ;
563 -> 567 ;
568 [label="dateRow <= 2014.4\nmse = 20724.2\nsamples = 44\nvalue = 3794.2"] ;
548 -> 568 ;
569 [label="mse = 0.0\nsamples = 1\nvalue = 3377.0"] ;
568 -> 569 ;
570 [label="dateRow <= 2014.7\nmse = 16330.3\nsamples = 43\nvalue = 3805.8"] ;
568 -> 570 ;
571 [label="dateRow <= 2014.6\nmse = 15082.2\nsamples = 40\nvalue = 3794.3"] ;
570 -> 571 ;
572 [label="Temp_Avg <= 61.5\nmse = 11292.2\nsamples = 30\nvalue = 3822.7"] ;
571 -> 572 ;
573 [label="month_int <= 10.5\nmse = 1518.8\nsamples = 2\nvalue = 3713.5"] ;
572 -> 573 ;
574 [label="mse = 0.0\nsamples = 1\nvalue = 3691.0"] ;
573 -> 574 ;
575 [label="mse = 0.0\nsamples = 1\nvalue = 3781.0"] ;
573 -> 575 ;
576 [label="day <= 8.5\nmse = 10968.6\nsamples = 28\nvalue = 3833.4"] ;
572 -> 576 ;
577 [label="dateRow <= 2014.4\nmse = 9534.7\nsamples = 8\nvalue = 3873.8"] ;
576 -> 577 ;
578 [label="month_int <= 7.0\nmse = 20736.0\nsamples = 2\nvalue = 3714.0"] ;
577 -> 578 ;
579 [label="mse = 0.0\nsamples = 1\nvalue = 3858.0"] ;
578 -> 579 ;
580 [label="mse = 0.0\nsamples = 1\nvalue = 3570.0"] ;
578 -> 580 ;
581 [label="month_int <= 6.5\nmse = 2703.4\nsamples = 6\nvalue = 3900.4"] ;
577 -> 581 ;
582 [label="mse = 0.0\nsamples = 1\nvalue = 3811.0"] ;
581 -> 582 ;
583 [label="dateRow <= 2014.5\nmse = 1325.2\nsamples = 5\nvalue = 3918.3"] ;
581 -> 583 ;
584 [label="month_int <= 7.5\nmse = 434.3\nsamples = 4\nvalue = 3908.1"] ;
583 -> 584 ;
585 [label="mse = 0.0\nsamples = 1\nvalue = 3942.0"] ;
584 -> 585 ;
586 [label="month_int <= 9.0\nmse = 136.5\nsamples = 3\nvalue = 3898.4"] ;
584 -> 586 ;
587 [label="day <= 6.0\nmse = 1.0\nsamples = 2\nvalue = 3905.8"] ;
586 -> 587 ;
588 [label="mse = 0.0\nsamples = 1\nvalue = 3905.0"] ;
587 -> 588 ;
589 [label="mse = 0.0\nsamples = 1\nvalue = 3907.0"] ;
587 -> 589 ;
590 [label="mse = 0.0\nsamples = 1\nvalue = 3880.0"] ;
586 -> 590 ;
591 [label="mse = 0.0\nsamples = 1\nvalue = 4010.0"] ;
583 -> 591 ;
592 [label="dateRow <= 2014.6\nmse = 10425.7\nsamples = 20\nvalue = 3812.4"] ;
576 -> 592 ;
593 [label="month_int <= 5.5\nmse = 10034.9\nsamples = 17\nvalue = 3790.6"] ;
592 -> 593 ;
594 [label="day <= 10.5\nmse = 5186.6\nsamples = 9\nvalue = 3832.5"] ;
593 -> 594 ;
595 [label="mse = 0.0\nsamples = 1\nvalue = 3704.0"] ;
594 -> 595 ;
596 [label="dateRow <= 2014.5\nmse = 3887.6\nsamples = 8\nvalue = 3845.4"] ;
594 -> 596 ;
597 [label="dateRow <= 2014.4\nmse = 1689.7\nsamples = 6\nvalue = 3858.4"] ;
596 -> 597 ;
598 [label="dateRow <= 2014.4\nmse = 404.2\nsamples = 4\nvalue = 3830.2"] ;
597 -> 598 ;
599 [label="dateRow <= 2014.4\nmse = 72.0\nsamples = 2\nvalue = 3845.0"] ;
598 -> 599 ;
600 [label="mse = 0.0\nsamples = 1\nvalue = 3857.0"] ;
599 -> 600 ;
601 [label="mse = 0.0\nsamples = 1\nvalue = 3839.0"] ;
599 -> 601 ;
602 [label="Temp_Avg <= 65.0\nmse = 81.0\nsamples = 2\nvalue = 3808.0"] ;
598 -> 602 ;
603 [label="mse = 0.0\nsamples = 1\nvalue = 3799.0"] ;
602 -> 603 ;
604 [label="mse = 0.0\nsamples = 1\nvalue = 3817.0"] ;
602 -> 604 ;
605 [label="day <= 15.0\nmse = 304.2\nsamples = 2\nvalue = 3905.3"] ;
597 -> 605 ;
606 [label="mse = 0.0\nsamples = 1\nvalue = 3893.0"] ;
605 -> 606 ;
607 [label="mse = 0.0\nsamples = 1\nvalue = 3930.0"] ;
605 -> 607 ;
608 [label="day <= 18.5\nmse = 9312.2\nsamples = 2\nvalue = 3793.5"] ;
596 -> 608 ;
609 [label="mse = 0.0\nsamples = 1\nvalue = 3697.0"] ;
608 -> 609 ;
610 [label="mse = 0.0\nsamples = 1\nvalue = 3890.0"] ;
608 -> 610 ;
611 [label="Temp_Avg <= 75.5\nmse = 11362.8\nsamples = 8\nvalue = 3748.6"] ;
593 -> 611 ;
612 [label="day <= 13.5\nmse = 5499.8\nsamples = 6\nvalue = 3711.3"] ;
611 -> 612 ;
613 [label="day <= 12.5\nmse = 2663.3\nsamples = 4\nvalue = 3752.0"] ;
612 -> 613 ;
614 [label="month_int <= 7.5\nmse = 107.0\nsamples = 3\nvalue = 3716.0"] ;
613 -> 614 ;
615 [label="mse = 0.0\nsamples = 1\nvalue = 3699.0"] ;
614 -> 615 ;
616 [label="day <= 9.5\nmse = 14.2\nsamples = 2\nvalue = 3721.7"] ;
614 -> 616 ;
617 [label="mse = 0.0\nsamples = 1\nvalue = 3719.0"] ;
616 -> 617 ;
618 [label="mse = 0.0\nsamples = 1\nvalue = 3727.0"] ;
616 -> 618 ;
619 [label="mse = 0.0\nsamples = 1\nvalue = 3824.0"] ;
613 -> 619 ;
620 [label="day <= 15.0\nmse = 1250.0\nsamples = 2\nvalue = 3630.0"] ;
612 -> 620 ;
621 [label="mse = 0.0\nsamples = 1\nvalue = 3580.0"] ;
620 -> 621 ;
622 [label="mse = 0.0\nsamples = 1\nvalue = 3655.0"] ;
620 -> 622 ;
623 [label="month_int <= 8.5\nmse = 3306.2\nsamples = 2\nvalue = 3916.5"] ;
611 -> 623 ;
624 [label="mse = 0.0\nsamples = 1\nvalue = 3859.0"] ;
623 -> 624 ;
625 [label="mse = 0.0\nsamples = 1\nvalue = 3974.0"] ;
623 -> 625 ;
626 [label="Temp_Avg <= 73.5\nmse = 836.6\nsamples = 3\nvalue = 3908.4"] ;
592 -> 626 ;
627 [label="Temp_Avg <= 67.5\nmse = 2.0\nsamples = 2\nvalue = 3932.0"] ;
626 -> 627 ;
628 [label="mse = 0.0\nsamples = 1\nvalue = 3933.0"] ;
627 -> 628 ;
629 [label="mse = 0.0\nsamples = 1\nvalue = 3930.0"] ;
627 -> 629 ;
630 [label="mse = 0.0\nsamples = 1\nvalue = 3873.0"] ;
626 -> 630 ;
631 [label="dateRow <= 2014.6\nmse = 17697.5\nsamples = 10\nvalue = 3730.3"] ;
571 -> 631 ;
632 [label="Temp_Avg <= 69.5\nmse = 790.2\nsamples = 3\nvalue = 3602.5"] ;
631 -> 632 ;
633 [label="dateRow <= 2014.6\nmse = 40.6\nsamples = 2\nvalue = 3614.8"] ;
632 -> 633 ;
634 [label="mse = 0.0\nsamples = 1\nvalue = 3620.0"] ;
633 -> 634 ;
635 [label="mse = 0.0\nsamples = 1\nvalue = 3607.0"] ;
633 -> 635 ;
636 [label="mse = 0.0\nsamples = 1\nvalue = 3541.0"] ;
632 -> 636 ;
637 [label="day <= 15.5\nmse = 14943.8\nsamples = 7\nvalue = 3785.1"] ;
631 -> 637 ;
638 [label="mse = 0.0\nsamples = 1\nvalue = 3986.0"] ;
637 -> 638 ;
639 [label="month_int <= 9.5\nmse = 9584.2\nsamples = 6\nvalue = 3751.6"] ;
637 -> 639 ;
640 [label="day <= 19.5\nmse = 4865.5\nsamples = 5\nvalue = 3730.0"] ;
639 -> 640 ;
641 [label="Temp_Avg <= 68.5\nmse = 192.0\nsamples = 2\nvalue = 3648.0"] ;
640 -> 641 ;
642 [label="mse = 0.0\nsamples = 1\nvalue = 3640.0"] ;
641 -> 642 ;
643 [label="mse = 0.0\nsamples = 1\nvalue = 3672.0"] ;
641 -> 643 ;
644 [label="month_int <= 7.5\nmse = 1498.1\nsamples = 3\nvalue = 3776.9"] ;
640 -> 644 ;
645 [label="mse = 0.0\nsamples = 1\nvalue = 3838.0"] ;
644 -> 645 ;
646 [label="dateRow <= 2014.7\nmse = 3.8\nsamples = 2\nvalue = 3752.4"] ;
644 -> 646 ;
647 [label="mse = 0.0\nsamples = 1\nvalue = 3754.0"] ;
646 -> 647 ;
648 [label="mse = 0.0\nsamples = 1\nvalue = 3750.0"] ;
646 -> 648 ;
649 [label="mse = 0.0\nsamples = 1\nvalue = 3989.0"] ;
639 -> 649 ;
650 [label="dateRow <= 2014.7\nmse = 15225.3\nsamples = 3\nvalue = 3912.9"] ;
570 -> 650 ;
651 [label="month_int <= 9.5\nmse = 1971.4\nsamples = 2\nvalue = 3987.2"] ;
650 -> 651 ;
652 [label="mse = 0.0\nsamples = 1\nvalue = 3965.0"] ;
651 -> 652 ;
653 [label="mse = 0.0\nsamples = 1\nvalue = 4076.0"] ;
651 -> 653 ;
654 [label="mse = 0.0\nsamples = 1\nvalue = 3727.0"] ;
650 -> 654 ;
655 [label="month_int <= 5.5\nmse = 17247.5\nsamples = 21\nvalue = 3728.1"] ;
547 -> 655 ;
656 [label="day <= 23.0\nmse = 6677.2\nsamples = 5\nvalue = 3584.1"] ;
655 -> 656 ;
657 [label="dateRow <= 2014.6\nmse = 1518.8\nsamples = 2\nvalue = 3611.5"] ;
656 -> 657 ;
658 [label="mse = 0.0\nsamples = 1\nvalue = 3544.0"] ;
657 -> 658 ;
659 [label="mse = 0.0\nsamples = 1\nvalue = 3634.0"] ;
657 -> 659 ;
660 [label="dateRow <= 2014.6\nmse = 9723.8\nsamples = 3\nvalue = 3562.2"] ;
656 -> 660 ;
661 [label="mse = 0.0\nsamples = 1\nvalue = 3365.0"] ;
660 -> 661 ;
662 [label="dateRow <= 2014.7\nmse = 2.2\nsamples = 2\nvalue = 3611.5"] ;
660 -> 662 ;
663 [label="mse = 0.0\nsamples = 1\nvalue = 3610.0"] ;
662 -> 663 ;
664 [label="mse = 0.0\nsamples = 1\nvalue = 3613.0"] ;
662 -> 664 ;
665 [label="Temp_Avg <= 69.0\nmse = 11243.5\nsamples = 16\nvalue = 3778.0"] ;
655 -> 665 ;
666 [label="day <= 22.5\nmse = 1814.2\nsamples = 3\nvalue = 3927.8"] ;
665 -> 666 ;
667 [label="mse = 0.0\nsamples = 1\nvalue = 3966.0"] ;
666 -> 667 ;
668 [label="Temp_Avg <= 65.0\nmse = 702.2\nsamples = 2\nvalue = 3889.5"] ;
666 -> 668 ;
669 [label="mse = 0.0\nsamples = 1\nvalue = 3863.0"] ;
668 -> 669 ;
670 [label="mse = 0.0\nsamples = 1\nvalue = 3916.0"] ;
668 -> 670 ;
671 [label="Temp_Avg <= 73.0\nmse = 8136.8\nsamples = 13\nvalue = 3750.7"] ;
665 -> 671 ;
672 [label="Temp_Avg <= 70.5\nmse = 4463.1\nsamples = 4\nvalue = 3636.0"] ;
671 -> 672 ;
673 [label="mse = 0.0\nsamples = 1\nvalue = 3557.0"] ;
672 -> 673 ;
674 [label="Temp_Avg <= 71.5\nmse = 2753.4\nsamples = 3\nvalue = 3667.6"] ;
672 -> 674 ;
675 [label="mse = 0.0\nsamples = 1\nvalue = 3755.0"] ;
674 -> 675 ;
676 [label="day <= 22.5\nmse = 1054.7\nsamples = 2\nvalue = 3645.8"] ;
674 -> 676 ;
677 [label="mse = 0.0\nsamples = 1\nvalue = 3702.0"] ;
676 -> 677 ;
678 [label="mse = 0.0\nsamples = 1\nvalue = 3627.0"] ;
676 -> 678 ;
679 [label="Temp_Avg <= 76.5\nmse = 842.3\nsamples = 9\nvalue = 3804.3"] ;
671 -> 679 ;
680 [label="dateRow <= 2014.7\nmse = 444.0\nsamples = 7\nvalue = 3794.8"] ;
679 -> 680 ;
681 [label="month_int <= 6.5\nmse = 163.9\nsamples = 3\nvalue = 3781.7"] ;
680 -> 681 ;
682 [label="dateRow <= 2014.7\nmse = 13.0\nsamples = 2\nvalue = 3787.2"] ;
681 -> 682 ;
683 [label="mse = 0.0\nsamples = 1\nvalue = 3789.0"] ;
682 -> 683 ;
684 [label="mse = 0.0\nsamples = 1\nvalue = 3780.0"] ;
682 -> 684 ;
685 [label="mse = 0.0\nsamples = 1\nvalue = 3754.0"] ;
681 -> 685 ;
686 [label="dateRow <= 2014.8\nmse = 381.8\nsamples = 4\nvalue = 3807.8"] ;
680 -> 686 ;
687 [label="Temp_Avg <= 74.5\nmse = 181.7\nsamples = 3\nvalue = 3819.2"] ;
686 -> 687 ;
688 [label="mse = 0.0\nsamples = 1\nvalue = 3826.0"] ;
687 -> 688 ;
689 [label="day <= 27.0\nmse = 272.2\nsamples = 2\nvalue = 3812.5"] ;
687 -> 689 ;
690 [label="mse = 0.0\nsamples = 1\nvalue = 3796.0"] ;
689 -> 690 ;
691 [label="mse = 0.0\nsamples = 1\nvalue = 3829.0"] ;
689 -> 691 ;
692 [label="mse = 0.0\nsamples = 1\nvalue = 3785.0"] ;
686 -> 692 ;
693 [label="day <= 26.0\nmse = 624.2\nsamples = 2\nvalue = 3842.3"] ;
679 -> 693 ;
694 [label="mse = 0.0\nsamples = 1\nvalue = 3860.0"] ;
693 -> 694 ;
695 [label="mse = 0.0\nsamples = 1\nvalue = 3807.0"] ;
693 -> 695 ;
696 [label="Temp_Avg <= 60.5\nmse = 30767.9\nsamples = 7\nvalue = 3912.8"] ;
546 -> 696 ;
697 [label="mse = 0.0\nsamples = 1\nvalue = 3579.0"] ;
696 -> 697 ;
698 [label="month_int <= 4.5\nmse = 16977.4\nsamples = 6\nvalue = 3960.4"] ;
696 -> 698 ;
699 [label="mse = 0.0\nsamples = 1\nvalue = 3745.0"] ;
698 -> 699 ;
700 [label="dateRow <= 2014.9\nmse = 5498.5\nsamples = 5\nvalue = 4019.2"] ;
698 -> 700 ;
701 [label="Temp_Avg <= 67.0\nmse = 595.4\nsamples = 2\nvalue = 4084.8"] ;
700 -> 701 ;
702 [label="mse = 0.0\nsamples = 1\nvalue = 4036.0"] ;
701 -> 702 ;
703 [label="mse = 0.0\nsamples = 1\nvalue = 4097.0"] ;
701 -> 703 ;
704 [label="day <= 16.0\nmse = 3006.2\nsamples = 3\nvalue = 3964.5"] ;
700 -> 704 ;
705 [label="day <= 1.5\nmse = 6.0\nsamples = 2\nvalue = 3989.0"] ;
704 -> 705 ;
706 [label="mse = 0.0\nsamples = 1\nvalue = 3992.0"] ;
705 -> 706 ;
707 [label="mse = 0.0\nsamples = 1\nvalue = 3987.0"] ;
705 -> 707 ;
708 [label="mse = 0.0\nsamples = 1\nvalue = 3842.0"] ;
704 -> 708 ;
709 [label="Temp_Avg <= 89.0\nmse = 35035.4\nsamples = 28\nvalue = 3980.3"] ;
427 -> 709 ;
710 [label="Temp_Avg <= 82.5\nmse = 19834.5\nsamples = 27\nvalue = 3948.7"] ;
709 -> 710 ;
711 [label="dateRow <= 2013.6\nmse = 15647.0\nsamples = 23\nvalue = 3915.6"] ;
710 -> 711 ;
712 [label="day <= 1.5\nmse = 12371.6\nsamples = 8\nvalue = 3825.0"] ;
711 -> 712 ;
713 [label="mse = 0.0\nsamples = 1\nvalue = 3669.0"] ;
712 -> 713 ;
714 [label="day <= 10.5\nmse = 10741.8\nsamples = 7\nvalue = 3842.3"] ;
712 -> 714 ;
715 [label="Temp_Avg <= 80.5\nmse = 9527.9\nsamples = 5\nvalue = 3870.7"] ;
714 -> 715 ;
716 [label="day <= 6.0\nmse = 380.2\nsamples = 2\nvalue = 3947.5"] ;
715 -> 716 ;
717 [label="mse = 0.0\nsamples = 1\nvalue = 3928.0"] ;
716 -> 717 ;
718 [label="mse = 0.0\nsamples = 1\nvalue = 3967.0"] ;
716 -> 718 ;
719 [label="day <= 6.0\nmse = 3381.6\nsamples = 3\nvalue = 3768.3"] ;
715 -> 719 ;
720 [label="mse = 0.0\nsamples = 1\nvalue = 3692.0"] ;
719 -> 720 ;
721 [label="dateRow <= 2013.4\nmse = 702.2\nsamples = 2\nvalue = 3806.5"] ;
719 -> 721 ;
722 [label="mse = 0.0\nsamples = 1\nvalue = 3780.0"] ;
721 -> 722 ;
723 [label="mse = 0.0\nsamples = 1\nvalue = 3833.0"] ;
721 -> 723 ;
724 [label="dateRow <= 2013.6\nmse = 2304.0\nsamples = 2\nvalue = 3743.0"] ;
714 -> 724 ;
725 [label="mse = 0.0\nsamples = 1\nvalue = 3695.0"] ;
724 -> 725 ;
726 [label="mse = 0.0\nsamples = 1\nvalue = 3791.0"] ;
724 -> 726 ;
727 [label="month_int <= 8.5\nmse = 13092.7\nsamples = 15\nvalue = 3945.8"] ;
711 -> 727 ;
728 [label="month_int <= 6.5\nmse = 10142.4\nsamples = 14\nvalue = 3920.0"] ;
727 -> 728 ;
729 [label="day <= 26.5\nmse = 10385.9\nsamples = 6\nvalue = 3992.4"] ;
728 -> 729 ;
730 [label="Temp_Avg <= 81.0\nmse = 2180.6\nsamples = 3\nvalue = 4038.3"] ;
729 -> 730 ;
731 [label="dateRow <= 2014.1\nmse = 54.0\nsamples = 2\nvalue = 4059.0"] ;
730 -> 731 ;
732 [label="mse = 0.0\nsamples = 1\nvalue = 4053.0"] ;
731 -> 732 ;
733 [label="mse = 0.0\nsamples = 1\nvalue = 4068.0"] ;
731 -> 733 ;
734 [label="mse = 0.0\nsamples = 1\nvalue = 3935.0"] ;
730 -> 734 ;
735 [label="month_int <= 5.5\nmse = 14653.4\nsamples = 3\nvalue = 3937.2"] ;
729 -> 735 ;
736 [label="mse = 0.0\nsamples = 1\nvalue = 4085.0"] ;
735 -> 736 ;
737 [label="day <= 28.5\nmse = 150.2\nsamples = 2\nvalue = 3838.7"] ;
735 -> 737 ;
738 [label="mse = 0.0\nsamples = 1\nvalue = 3856.0"] ;
737 -> 738 ;
739 [label="mse = 0.0\nsamples = 1\nvalue = 3830.0"] ;
737 -> 739 ;
740 [label="dateRow <= 2014.7\nmse = 3314.8\nsamples = 8\nvalue = 3867.0"] ;
728 -> 740 ;
741 [label="dateRow <= 2014.5\nmse = 1172.0\nsamples = 5\nvalue = 3835.8"] ;
740 -> 741 ;
742 [label="day <= 7.5\nmse = 444.4\nsamples = 4\nvalue = 3851.1"] ;
741 -> 742 ;
743 [label="dateRow <= 2014.4\nmse = 4.0\nsamples = 2\nvalue = 3884.0"] ;
742 -> 743 ;
744 [label="mse = 0.0\nsamples = 1\nvalue = 3882.0"] ;
743 -> 744 ;
745 [label="mse = 0.0\nsamples = 1\nvalue = 3886.0"] ;
743 -> 745 ;
746 [label="month_int <= 7.5\nmse = 16.0\nsamples = 2\nvalue = 3838.0"] ;
742 -> 746 ;
747 [label="mse = 0.0\nsamples = 1\nvalue = 3830.0"] ;
746 -> 747 ;
748 [label="mse = 0.0\nsamples = 1\nvalue = 3840.0"] ;
746 -> 748 ;
749 [label="mse = 0.0\nsamples = 1\nvalue = 3782.0"] ;
741 -> 749 ;
750 [label="day <= 24.5\nmse = 2873.5\nsamples = 3\nvalue = 3913.8"] ;
740 -> 750 ;
751 [label="mse = 0.0\nsamples = 1\nvalue = 3966.0"] ;
750 -> 751 ;
752 [label="dateRow <= 2014.8\nmse = 304.2\nsamples = 2\nvalue = 3861.7"] ;
750 -> 752 ;
753 [label="mse = 0.0\nsamples = 1\nvalue = 3837.0"] ;
752 -> 753 ;
754 [label="mse = 0.0\nsamples = 1\nvalue = 3874.0"] ;
752 -> 754 ;
755 [label="mse = 0.0\nsamples = 1\nvalue = 4113.0"] ;
727 -> 755 ;
756 [label="day <= 21.0\nmse = 11937.1\nsamples = 4\nvalue = 4095.8"] ;
710 -> 756 ;
757 [label="day <= 9.5\nmse = 1347.4\nsamples = 3\nvalue = 4040.0"] ;
756 -> 757 ;
758 [label="mse = 0.0\nsamples = 1\nvalue = 4098.0"] ;
757 -> 758 ;
759 [label="day <= 17.5\nmse = 2.6\nsamples = 2\nvalue = 4016.8"] ;
757 -> 759 ;
760 [label="mse = 0.0\nsamples = 1\nvalue = 4016.0"] ;
759 -> 760 ;
761 [label="mse = 0.0\nsamples = 1\nvalue = 4020.0"] ;
759 -> 761 ;
762 [label="mse = 0.0\nsamples = 1\nvalue = 4291.0"] ;
756 -> 762 ;
763 [label="mse = 0.0\nsamples = 1\nvalue = 4497.0"] ;
709 -> 763 ;
764 [label="Temp_Avg <= 73.5\nmse = 70962.0\nsamples = 484\nvalue = 3965.0"] ;
0 -> 764 [labeldistance=2.5, labelangle=-45, headlabel="False"] ;
765 [label="Temp_Avg <= 40.5\nmse = 63019.8\nsamples = 347\nvalue = 3893.7"] ;
764 -> 765 ;
766 [label="day <= 1.5\nmse = 75969.8\nsamples = 92\nvalue = 3787.7"] ;
765 -> 766 ;
767 [label="mse = 0.0\nsamples = 1\nvalue = 4879.0"] ;
766 -> 767 ;
768 [label="dateRow <= 2016.1\nmse = 60365.9\nsamples = 91\nvalue = 3772.7"] ;
766 -> 768 ;
769 [label="day <= 20.5\nmse = 34534.2\nsamples = 26\nvalue = 3633.0"] ;
768 -> 769 ;
770 [label="Temp_Avg <= 39.5\nmse = 15202.1\nsamples = 10\nvalue = 3516.3"] ;
769 -> 770 ;
771 [label="dateRow <= 2015.4\nmse = 7954.4\nsamples = 9\nvalue = 3553.7"] ;
770 -> 771 ;
772 [label="mse = 0.0\nsamples = 1\nvalue = 3440.0"] ;
771 -> 772 ;
773 [label="day <= 3.0\nmse = 6444.4\nsamples = 8\nvalue = 3576.4"] ;
771 -> 773 ;
774 [label="mse = 0.0\nsamples = 1\nvalue = 3439.0"] ;
773 -> 774 ;
775 [label="day <= 19.5\nmse = 4829.8\nsamples = 7\nvalue = 3591.7"] ;
773 -> 775 ;
776 [label="year <= 2015.5\nmse = 1413.8\nsamples = 5\nvalue = 3627.8"] ;
775 -> 776 ;
777 [label="Temp_Avg <= 37.0\nmse = 192.4\nsamples = 4\nvalue = 3612.0"] ;
776 -> 777 ;
778 [label="Temp_Avg <= 27.0\nmse = 18.0\nsamples = 2\nvalue = 3623.0"] ;
777 -> 778 ;
779 [label="mse = 0.0\nsamples = 1\nvalue = 3629.0"] ;
778 -> 779 ;
780 [label="mse = 0.0\nsamples = 1\nvalue = 3620.0"] ;
778 -> 780 ;
781 [label="Temp_Avg <= 38.5\nmse = 0.2\nsamples = 2\nvalue = 3595.5"] ;
777 -> 781 ;
782 [label="mse = 0.0\nsamples = 1\nvalue = 3596.0"] ;
781 -> 782 ;
783 [label="mse = 0.0\nsamples = 1\nvalue = 3595.0"] ;
781 -> 783 ;
784 [label="mse = 0.0\nsamples = 1\nvalue = 3707.0"] ;
776 -> 784 ;
785 [label="dateRow <= 2015.6\nmse = 3813.6\nsamples = 2\nvalue = 3519.3"] ;
775 -> 785 ;
786 [label="mse = 0.0\nsamples = 1\nvalue = 3563.0"] ;
785 -> 786 ;
787 [label="mse = 0.0\nsamples = 1\nvalue = 3432.0"] ;
785 -> 787 ;
788 [label="mse = 0.0\nsamples = 1\nvalue = 3292.0"] ;
770 -> 788 ;
789 [label="month_int <= 1.5\nmse = 33991.9\nsamples = 16\nvalue = 3691.3"] ;
769 -> 789 ;
790 [label="dateRow <= 2015.4\nmse = 3481.0\nsamples = 2\nvalue = 3935.0"] ;
789 -> 790 ;
791 [label="mse = 0.0\nsamples = 1\nvalue = 3994.0"] ;
790 -> 791 ;
792 [label="mse = 0.0\nsamples = 1\nvalue = 3876.0"] ;
790 -> 792 ;
793 [label="Temp_Avg <= 31.0\nmse = 27527.7\nsamples = 14\nvalue = 3650.7"] ;
789 -> 793 ;
794 [label="Temp_Avg <= 23.5\nmse = 30677.3\nsamples = 5\nvalue = 3761.7"] ;
793 -> 794 ;
795 [label="Temp_Avg <= 22.0\nmse = 107.6\nsamples = 2\nvalue = 3559.7"] ;
794 -> 795 ;
796 [label="mse = 0.0\nsamples = 1\nvalue = 3567.0"] ;
795 -> 796 ;
797 [label="mse = 0.0\nsamples = 1\nvalue = 3545.0"] ;
795 -> 797 ;
798 [label="day <= 25.5\nmse = 15359.2\nsamples = 3\nvalue = 3862.7"] ;
794 -> 798 ;
799 [label="mse = 0.0\nsamples = 1\nvalue = 3955.0"] ;
798 -> 799 ;
800 [label="day <= 26.5\nmse = 13667.6\nsamples = 2\nvalue = 3770.3"] ;
798 -> 800 ;
801 [label="mse = 0.0\nsamples = 1\nvalue = 3605.0"] ;
800 -> 801 ;
802 [label="mse = 0.0\nsamples = 1\nvalue = 3853.0"] ;
800 -> 802 ;
803 [label="dateRow <= 2015.6\nmse = 13809.8\nsamples = 9\nvalue = 3584.1"] ;
793 -> 803 ;
804 [label="dateRow <= 2015.5\nmse = 3395.6\nsamples = 3\nvalue = 3476.3"] ;
803 -> 804 ;
805 [label="mse = 0.0\nsamples = 1\nvalue = 3565.0"] ;
804 -> 805 ;
806 [label="dateRow <= 2015.5\nmse = 346.6\nsamples = 2\nvalue = 3440.8"] ;
804 -> 806 ;
807 [label="mse = 0.0\nsamples = 1\nvalue = 3418.0"] ;
806 -> 807 ;
808 [label="mse = 0.0\nsamples = 1\nvalue = 3456.0"] ;
806 -> 808 ;
809 [label="day <= 29.5\nmse = 3863.5\nsamples = 6\nvalue = 3678.4"] ;
803 -> 809 ;
810 [label="day <= 28.5\nmse = 1393.2\nsamples = 5\nvalue = 3636.0"] ;
809 -> 810 ;
811 [label="month_int <= 11.5\nmse = 20.2\nsamples = 3\nvalue = 3666.3"] ;
810 -> 811 ;
812 [label="day <= 23.5\nmse = 0.2\nsamples = 2\nvalue = 3669.5"] ;
811 -> 812 ;
813 [label="mse = 0.0\nsamples = 1\nvalue = 3669.0"] ;
812 -> 813 ;
814 [label="mse = 0.0\nsamples = 1\nvalue = 3670.0"] ;
812 -> 814 ;
815 [label="mse = 0.0\nsamples = 1\nvalue = 3660.0"] ;
811 -> 815 ;
816 [label="month_int <= 7.5\nmse = 2.2\nsamples = 2\nvalue = 3590.5"] ;
810 -> 816 ;
817 [label="mse = 0.0\nsamples = 1\nvalue = 3592.0"] ;
816 -> 817 ;
818 [label="mse = 0.0\nsamples = 1\nvalue = 3589.0"] ;
816 -> 818 ;
819 [label="mse = 0.0\nsamples = 1\nvalue = 3749.0"] ;
809 -> 819 ;
820 [label="month_int <= 11.5\nmse = 59689.0\nsamples = 65\nvalue = 3829.7"] ;
768 -> 820 ;
821 [label="dateRow <= 2017.3\nmse = 61690.3\nsamples = 48\nvalue = 3773.1"] ;
820 -> 821 ;
822 [label="dateRow <= 2017.2\nmse = 26941.8\nsamples = 31\nvalue = 3865.1"] ;
821 -> 822 ;
823 [label="day <= 7.5\nmse = 19045.6\nsamples = 25\nvalue = 3823.9"] ;
822 -> 823 ;
824 [label="Temp_Avg <= 31.5\nmse = 5952.5\nsamples = 10\nvalue = 3906.2"] ;
823 -> 824 ;
825 [label="Temp_Avg <= 30.0\nmse = 3847.7\nsamples = 3\nvalue = 3989.8"] ;
824 -> 825 ;
826 [label="Temp_Avg <= 26.0\nmse = 5550.2\nsamples = 2\nvalue = 4022.5"] ;
825 -> 826 ;
827 [label="mse = 0.0\nsamples = 1\nvalue = 3948.0"] ;
826 -> 827 ;
828 [label="mse = 0.0\nsamples = 1\nvalue = 4097.0"] ;
826 -> 828 ;
829 [label="mse = 0.0\nsamples = 1\nvalue = 3957.0"] ;
825 -> 829 ;
830 [label="Temp_Avg <= 36.0\nmse = 2409.9\nsamples = 7\nvalue = 3869.1"] ;
824 -> 830 ;
831 [label="dateRow <= 2016.2\nmse = 1542.6\nsamples = 5\nvalue = 3854.0"] ;
830 -> 831 ;
832 [label="mse = 0.0\nsamples = 1\nvalue = 3913.0"] ;
831 -> 832 ;
833 [label="month_int <= 2.5\nmse = 1122.8\nsamples = 4\nvalue = 3844.2"] ;
831 -> 833 ;
834 [label="mse = 0.0\nsamples = 1\nvalue = 3798.0"] ;
833 -> 834 ;
835 [label="dateRow <= 2016.7\nmse = 85.7\nsamples = 3\nvalue = 3867.2"] ;
833 -> 835 ;
836 [label="month_int <= 3.5\nmse = 0.2\nsamples = 2\nvalue = 3876.5"] ;
835 -> 836 ;
837 [label="mse = 0.0\nsamples = 1\nvalue = 3876.0"] ;
836 -> 837 ;
838 [label="mse = 0.0\nsamples = 1\nvalue = 3877.0"] ;
836 -> 838 ;
839 [label="mse = 0.0\nsamples = 1\nvalue = 3858.0"] ;
835 -> 839 ;
840 [label="dateRow <= 2016.7\nmse = 1849.0\nsamples = 2\nvalue = 3922.0"] ;
830 -> 840 ;
841 [label="mse = 0.0\nsamples = 1\nvalue = 3965.0"] ;
840 -> 841 ;
842 [label="mse = 0.0\nsamples = 1\nvalue = 3879.0"] ;
840 -> 842 ;
843 [label="day <= 27.5\nmse = 20455.8\nsamples = 15\nvalue = 3777.4"] ;
823 -> 843 ;
844 [label="Temp_Avg <= 37.5\nmse = 14434.4\nsamples = 13\nvalue = 3751.1"] ;
843 -> 844 ;
845 [label="day <= 9.5\nmse = 9195.2\nsamples = 11\nvalue = 3777.1"] ;
844 -> 845 ;
846 [label="mse = 0.0\nsamples = 1\nvalue = 3634.0"] ;
845 -> 846 ;
847 [label="dateRow <= 2016.4\nmse = 8460.5\nsamples = 10\nvalue = 3785.5"] ;
845 -> 847 ;
848 [label="month_int <= 1.5\nmse = 8567.8\nsamples = 8\nvalue = 3768.6"] ;
847 -> 848 ;
849 [label="Temp_Avg <= 27.5\nmse = 10704.6\nsamples = 4\nvalue = 3709.3"] ;
848 -> 849 ;
850 [label="mse = 0.0\nsamples = 1\nvalue = 3484.0"] ;
849 -> 850 ;
851 [label="Temp_Avg <= 30.5\nmse = 659.4\nsamples = 3\nvalue = 3754.4"] ;
849 -> 851 ;
852 [label="mse = 0.0\nsamples = 1\nvalue = 3709.0"] ;
851 -> 852 ;
853 [label="dateRow <= 2016.3\nmse = 180.2\nsamples = 2\nvalue = 3765.8"] ;
851 -> 853 ;
854 [label="mse = 0.0\nsamples = 1\nvalue = 3789.0"] ;
853 -> 854 ;
855 [label="mse = 0.0\nsamples = 1\nvalue = 3758.0"] ;
853 -> 855 ;
856 [label="dateRow <= 2016.3\nmse = 1142.0\nsamples = 4\nvalue = 3819.4"] ;
848 -> 856 ;
857 [label="dateRow <= 2016.3\nmse = 128.0\nsamples = 2\nvalue = 3856.0"] ;
856 -> 857 ;
858 [label="mse = 0.0\nsamples = 1\nvalue = 3848.0"] ;
857 -> 858 ;
859 [label="mse = 0.0\nsamples = 1\nvalue = 3872.0"] ;
857 -> 859 ;
860 [label="Temp_Avg <= 30.5\nmse = 147.0\nsamples = 2\nvalue = 3792.0"] ;
856 -> 860 ;
861 [label="mse = 0.0\nsamples = 1\nvalue = 3785.0"] ;
860 -> 861 ;
862 [label="mse = 0.0\nsamples = 1\nvalue = 3813.0"] ;
860 -> 862 ;
863 [label="Temp_Avg <= 30.0\nmse = 4160.2\nsamples = 2\nvalue = 3840.5"] ;
847 -> 863 ;
864 [label="mse = 0.0\nsamples = 1\nvalue = 3905.0"] ;
863 -> 864 ;
865 [label="mse = 0.0\nsamples = 1\nvalue = 3776.0"] ;
863 -> 865 ;
866 [label="dateRow <= 2016.6\nmse = 17546.9\nsamples = 2\nvalue = 3595.3"] ;
844 -> 866 ;
867 [label="mse = 0.0\nsamples = 1\nvalue = 3408.0"] ;
866 -> 867 ;
868 [label="mse = 0.0\nsamples = 1\nvalue = 3689.0"] ;
866 -> 868 ;
869 [label="dateRow <= 2016.5\nmse = 210.2\nsamples = 2\nvalue = 4053.5"] ;
843 -> 869 ;
870 [label="mse = 0.0\nsamples = 1\nvalue = 4039.0"] ;
869 -> 870 ;
871 [label="mse = 0.0\nsamples = 1\nvalue = 4068.0"] ;
869 -> 871 ;
872 [label="Temp_Avg <= 35.0\nmse = 13999.0\nsamples = 6\nvalue = 4076.9"] ;
822 -> 872 ;
873 [label="day <= 9.5\nmse = 3126.8\nsamples = 3\nvalue = 4163.5"] ;
872 -> 873 ;
874 [label="mse = 0.0\nsamples = 1\nvalue = 4258.0"] ;
873 -> 874 ;
875 [label="dateRow <= 2017.2\nmse = 200.0\nsamples = 2\nvalue = 4132.0"] ;
873 -> 875 ;
876 [label="mse = 0.0\nsamples = 1\nvalue = 4152.0"] ;
875 -> 876 ;
877 [label="mse = 0.0\nsamples = 1\nvalue = 4122.0"] ;
875 -> 877 ;
878 [label="Temp_Avg <= 37.5\nmse = 5140.2\nsamples = 3\nvalue = 3961.3"] ;
872 -> 878 ;
879 [label="mse = 0.0\nsamples = 1\nvalue = 3860.0"] ;
878 -> 879 ;
880 [label="dateRow <= 2017.2\nmse = 9.0\nsamples = 2\nvalue = 4012.0"] ;
878 -> 880 ;
881 [label="mse = 0.0\nsamples = 1\nvalue = 4009.0"] ;
880 -> 881 ;
882 [label="mse = 0.0\nsamples = 1\nvalue = 4015.0"] ;
880 -> 882 ;
883 [label="Temp_Avg <= 28.5\nmse = 81859.3\nsamples = 17\nvalue = 3645.5"] ;
821 -> 883 ;
884 [label="day <= 12.5\nmse = 14461.0\nsamples = 2\nvalue = 3284.1"] ;
883 -> 884 ;
885 [label="mse = 0.0\nsamples = 1\nvalue = 3423.0"] ;
884 -> 885 ;
886 [label="mse = 0.0\nsamples = 1\nvalue = 3180.0"] ;
884 -> 886 ;
887 [label="dateRow <= 2017.5\nmse = 52327.7\nsamples = 15\nvalue = 3750.9"] ;
883 -> 887 ;
888 [label="dateRow <= 2017.3\nmse = 38608.3\nsamples = 9\nvalue = 3884.8"] ;
887 -> 888 ;
889 [label="Temp_Avg <= 35.5\nmse = 1803.0\nsamples = 3\nvalue = 3674.0"] ;
888 -> 889 ;
890 [label="Temp_Avg <= 32.5\nmse = 288.0\nsamples = 2\nvalue = 3651.0"] ;
889 -> 890 ;
891 [label="mse = 0.0\nsamples = 1\nvalue = 3663.0"] ;
890 -> 891 ;
892 [label="mse = 0.0\nsamples = 1\nvalue = 3627.0"] ;
890 -> 892 ;
893 [label="mse = 0.0\nsamples = 1\nvalue = 3743.0"] ;
889 -> 893 ;
894 [label="Temp_Avg <= 33.0\nmse = 26447.4\nsamples = 6\nvalue = 3978.4"] ;
888 -> 894 ;
895 [label="mse = 0.0\nsamples = 1\nvalue = 4247.0"] ;
894 -> 895 ;
896 [label="Temp_Avg <= 38.5\nmse = 7509.9\nsamples = 5\nvalue = 3901.7"] ;
894 -> 896 ;
897 [label="month_int <= 2.5\nmse = 890.2\nsamples = 3\nvalue = 3862.5"] ;
896 -> 897 ;
898 [label="dateRow <= 2017.4\nmse = 98.0\nsamples = 2\nvalue = 3879.0"] ;
897 -> 898 ;
899 [label="mse = 0.0\nsamples = 1\nvalue = 3893.0"] ;
898 -> 899 ;
900 [label="mse = 0.0\nsamples = 1\nvalue = 3872.0"] ;
898 -> 900 ;
901 [label="mse = 0.0\nsamples = 1\nvalue = 3813.0"] ;
897 -> 901 ;
902 [label="day <= 25.5\nmse = 11552.0\nsamples = 2\nvalue = 3954.0"] ;
896 -> 902 ;
903 [label="mse = 0.0\nsamples = 1\nvalue = 4106.0"] ;
902 -> 903 ;
904 [label="mse = 0.0\nsamples = 1\nvalue = 3878.0"] ;
902 -> 904 ;
905 [label="Temp_Avg <= 38.5\nmse = 22314.8\nsamples = 6\nvalue = 3592.6"] ;
887 -> 905 ;
906 [label="dateRow <= 2017.6\nmse = 2295.2\nsamples = 3\nvalue = 3779.8"] ;
905 -> 906 ;
907 [label="mse = 0.0\nsamples = 1\nvalue = 3702.0"] ;
906 -> 907 ;
908 [label="Temp_Avg <= 34.5\nmse = 373.6\nsamples = 2\nvalue = 3805.7"] ;
906 -> 908 ;
909 [label="mse = 0.0\nsamples = 1\nvalue = 3792.0"] ;
908 -> 909 ;
910 [label="mse = 0.0\nsamples = 1\nvalue = 3833.0"] ;
908 -> 910 ;
911 [label="dateRow <= 2017.5\nmse = 2315.6\nsamples = 3\nvalue = 3485.7"] ;
905 -> 911 ;
912 [label="mse = 0.0\nsamples = 1\nvalue = 3376.0"] ;
911 -> 912 ;
913 [label="dateRow <= 2017.5\nmse = 361.0\nsamples = 2\nvalue = 3504.0"] ;
911 -> 913 ;
914 [label="mse = 0.0\nsamples = 1\nvalue = 3523.0"] ;
913 -> 914 ;
915 [label="mse = 0.0\nsamples = 1\nvalue = 3485.0"] ;
913 -> 915 ;
916 [label="dateRow <= 2016.7\nmse = 25577.8\nsamples = 17\nvalue = 3974.0"] ;
820 -> 916 ;
917 [label="day <= 10.5\nmse = 38085.9\nsamples = 4\nvalue = 3815.3"] ;
916 -> 917 ;
918 [label="day <= 8.5\nmse = 12354.8\nsamples = 3\nvalue = 3937.5"] ;
917 -> 918 ;
919 [label="mse = 0.0\nsamples = 1\nvalue = 4100.0"] ;
918 -> 919 ;
920 [label="day <= 9.5\nmse = 4736.9\nsamples = 2\nvalue = 3883.3"] ;
918 -> 920 ;
921 [label="mse = 0.0\nsamples = 1\nvalue = 3932.0"] ;
920 -> 921 ;
922 [label="mse = 0.0\nsamples = 1\nvalue = 3786.0"] ;
920 -> 922 ;
923 [label="mse = 0.0\nsamples = 1\nvalue = 3571.0"] ;
917 -> 923 ;
924 [label="day <= 24.0\nmse = 14030.5\nsamples = 13\nvalue = 4015.4"] ;
916 -> 924 ;
925 [label="day <= 11.5\nmse = 9004.0\nsamples = 8\nvalue = 4115.6"] ;
924 -> 925 ;
926 [label="mse = 0.0\nsamples = 1\nvalue = 4296.0"] ;
925 -> 926 ;
927 [label="dateRow <= 2016.8\nmse = 5986.7\nsamples = 7\nvalue = 4095.6"] ;
925 -> 927 ;
928 [label="dateRow <= 2016.8\nmse = 6797.6\nsamples = 3\nvalue = 4041.7"] ;
927 -> 928 ;
929 [label="Temp_Avg <= 31.0\nmse = 506.2\nsamples = 2\nvalue = 4098.5"] ;
928 -> 929 ;
930 [label="mse = 0.0\nsamples = 1\nvalue = 4121.0"] ;
929 -> 930 ;
931 [label="mse = 0.0\nsamples = 1\nvalue = 4076.0"] ;
929 -> 931 ;
932 [label="mse = 0.0\nsamples = 1\nvalue = 3928.0"] ;
928 -> 932 ;
933 [label="dateRow <= 2016.8\nmse = 3403.2\nsamples = 4\nvalue = 4122.5"] ;
927 -> 933 ;
934 [label="mse = 0.0\nsamples = 1\nvalue = 4194.0"] ;
933 -> 934 ;
935 [label="Temp_Avg <= 33.5\nmse = 1270.7\nsamples = 3\nvalue = 4086.8"] ;
933 -> 935 ;
936 [label="day <= 17.0\nmse = 288.0\nsamples = 2\nvalue = 4068.0"] ;
935 -> 936 ;
937 [label="mse = 0.0\nsamples = 1\nvalue = 4080.0"] ;
936 -> 937 ;
938 [label="mse = 0.0\nsamples = 1\nvalue = 4044.0"] ;
936 -> 938 ;
939 [label="mse = 0.0\nsamples = 1\nvalue = 4143.0"] ;
935 -> 939 ;
940 [label="day <= 30.0\nmse = 4242.5\nsamples = 5\nvalue = 3938.4"] ;
924 -> 940 ;
941 [label="Temp_Avg <= 16.0\nmse = 824.9\nsamples = 4\nvalue = 3955.4"] ;
940 -> 941 ;
942 [label="mse = 0.0\nsamples = 1\nvalue = 3928.0"] ;
941 -> 942 ;
943 [label="Temp_Avg <= 38.5\nmse = 493.7\nsamples = 3\nvalue = 3975.0"] ;
941 -> 943 ;
944 [label="dateRow <= 2017.5\nmse = 108.0\nsamples = 2\nvalue = 3993.0"] ;
943 -> 944 ;
945 [label="mse = 0.0\nsamples = 1\nvalue = 3987.0"] ;
944 -> 945 ;
946 [label="mse = 0.0\nsamples = 1\nvalue = 4011.0"] ;
944 -> 946 ;
947 [label="mse = 0.0\nsamples = 1\nvalue = 3951.0"] ;
943 -> 947 ;
948 [label="mse = 0.0\nsamples = 1\nvalue = 3734.0"] ;
940 -> 948 ;
949 [label="dateRow <= 2016.2\nmse = 52710.7\nsamples = 255\nvalue = 3932.3"] ;
765 -> 949 ;
950 [label="dateRow <= 2015.8\nmse = 53037.9\nsamples = 71\nvalue = 3840.4"] ;
949 -> 950 ;
951 [label="Temp_Avg <= 58.5\nmse = 32558.6\nsamples = 52\nvalue = 3904.9"] ;
950 -> 951 ;
952 [label="day <= 9.5\nmse = 24142.7\nsamples = 20\nvalue = 3810.9"] ;
951 -> 952 ;
953 [label="day <= 7.5\nmse = 36529.7\nsamples = 6\nvalue = 3716.1"] ;
952 -> 953 ;
954 [label="dateRow <= 2015.5\nmse = 30393.9\nsamples = 4\nvalue = 3821.7"] ;
953 -> 954 ;
955 [label="mse = 0.0\nsamples = 1\nvalue = 3598.0"] ;
954 -> 955 ;
956 [label="Temp_Avg <= 47.5\nmse = 8070.8\nsamples = 3\nvalue = 3933.5"] ;
954 -> 956 ;
957 [label="dateRow <= 2015.6\nmse = 3307.6\nsamples = 2\nvalue = 3890.3"] ;
956 -> 957 ;
958 [label="mse = 0.0\nsamples = 1\nvalue = 3931.0"] ;
957 -> 958 ;
959 [label="mse = 0.0\nsamples = 1\nvalue = 3809.0"] ;
957 -> 959 ;
960 [label="mse = 0.0\nsamples = 1\nvalue = 4063.0"] ;
956 -> 960 ;
961 [label="Temp_Avg <= 48.0\nmse = 3942.2\nsamples = 2\nvalue = 3557.8"] ;
953 -> 961 ;
962 [label="mse = 0.0\nsamples = 1\nvalue = 3594.0"] ;
961 -> 962 ;
963 [label="mse = 0.0\nsamples = 1\nvalue = 3449.0"] ;
961 -> 963 ;
964 [label="dateRow <= 2015.7\nmse = 11204.1\nsamples = 14\nvalue = 3858.4"] ;
952 -> 964 ;
965 [label="Temp_Avg <= 41.5\nmse = 5312.4\nsamples = 9\nvalue = 3892.9"] ;
964 -> 965 ;
966 [label="mse = 0.0\nsamples = 1\nvalue = 3745.0"] ;
965 -> 966 ;
967 [label="dateRow <= 2015.6\nmse = 3779.7\nsamples = 8\nvalue = 3905.2"] ;
965 -> 967 ;
968 [label="Temp_Avg <= 53.5\nmse = 5165.8\nsamples = 4\nvalue = 3863.8"] ;
967 -> 968 ;
969 [label="day <= 18.0\nmse = 1156.0\nsamples = 2\nvalue = 3941.0"] ;
968 -> 969 ;
970 [label="mse = 0.0\nsamples = 1\nvalue = 3975.0"] ;
969 -> 970 ;
971 [label="mse = 0.0\nsamples = 1\nvalue = 3907.0"] ;
969 -> 971 ;
972 [label="dateRow <= 2015.5\nmse = 1216.9\nsamples = 2\nvalue = 3812.3"] ;
968 -> 972 ;
973 [label="mse = 0.0\nsamples = 1\nvalue = 3763.0"] ;
972 -> 973 ;
974 [label="mse = 0.0\nsamples = 1\nvalue = 3837.0"] ;
972 -> 974 ;
975 [label="day <= 27.0\nmse = 685.8\nsamples = 4\nvalue = 3934.9"] ;
967 -> 975 ;
976 [label="dateRow <= 2015.7\nmse = 85.5\nsamples = 3\nvalue = 3913.0"] ;
975 -> 976 ;
977 [label="dateRow <= 2015.6\nmse = 26.9\nsamples = 2\nvalue = 3917.7"] ;
976 -> 977 ;
978 [label="mse = 0.0\nsamples = 1\nvalue = 3925.0"] ;
977 -> 978 ;
979 [label="mse = 0.0\nsamples = 1\nvalue = 3914.0"] ;
977 -> 979 ;
980 [label="mse = 0.0\nsamples = 1\nvalue = 3899.0"] ;
976 -> 980 ;
981 [label="mse = 0.0\nsamples = 1\nvalue = 3964.0"] ;
975 -> 981 ;
982 [label="dateRow <= 2015.7\nmse = 15803.6\nsamples = 5\nvalue = 3794.1"] ;
964 -> 982 ;
983 [label="mse = 0.0\nsamples = 1\nvalue = 3614.0"] ;
982 -> 983 ;
984 [label="dateRow <= 2015.8\nmse = 3952.2\nsamples = 4\nvalue = 3866.2"] ;
982 -> 984 ;
985 [label="day <= 17.5\nmse = 42.2\nsamples = 2\nvalue = 3789.5"] ;
984 -> 985 ;
986 [label="mse = 0.0\nsamples = 1\nvalue = 3783.0"] ;
985 -> 986 ;
987 [label="mse = 0.0\nsamples = 1\nvalue = 3796.0"] ;
985 -> 987 ;
988 [label="day <= 20.5\nmse = 22.2\nsamples = 2\nvalue = 3917.3"] ;
984 -> 988 ;
989 [label="mse = 0.0\nsamples = 1\nvalue = 3914.0"] ;
988 -> 989 ;
990 [label="mse = 0.0\nsamples = 1\nvalue = 3924.0"] ;
988 -> 990 ;
991 [label="dateRow <= 2015.6\nmse = 29803.6\nsamples = 32\nvalue = 3955.2"] ;
951 -> 991 ;
992 [label="dateRow <= 2015.4\nmse = 30145.7\nsamples = 16\nvalue = 4033.9"] ;
991 -> 992 ;
993 [label="Temp_Avg <= 69.5\nmse = 35454.2\nsamples = 5\nvalue = 3928.2"] ;
992 -> 993 ;
994 [label="Temp_Avg <= 61.0\nmse = 14325.2\nsamples = 4\nvalue = 3850.8"] ;
993 -> 994 ;
995 [label="mse = 0.0\nsamples = 1\nvalue = 3697.0"] ;
994 -> 995 ;
996 [label="day <= 11.0\nmse = 226.8\nsamples = 3\nvalue = 3943.0"] ;
994 -> 996 ;
997 [label="dateRow <= 2015.4\nmse = 18.0\nsamples = 2\nvalue = 3931.0"] ;
996 -> 997 ;
998 [label="mse = 0.0\nsamples = 1\nvalue = 3937.0"] ;
997 -> 998 ;
999 [label="mse = 0.0\nsamples = 1\nvalue = 3928.0"] ;
997 -> 999 ;
1000 [label="mse = 0.0\nsamples = 1\nvalue = 3961.0"] ;
996 -> 1000 ;
1001 [label="mse = 0.0\nsamples = 1\nvalue = 4238.0"] ;
993 -> 1001 ;
1002 [label="day <= 19.0\nmse = 10853.4\nsamples = 11\nvalue = 4115.2"] ;
992 -> 1002 ;
1003 [label="day <= 3.0\nmse = 4638.2\nsamples = 8\nvalue = 4172.4"] ;
1002 -> 1003 ;
1004 [label="mse = 0.0\nsamples = 1\nvalue = 4318.0"] ;
1003 -> 1004 ;
1005 [label="dateRow <= 2015.5\nmse = 2238.7\nsamples = 7\nvalue = 4154.2"] ;
1003 -> 1005 ;
1006 [label="mse = 0.0\nsamples = 1\nvalue = 4226.0"] ;
1005 -> 1006 ;
1007 [label="Temp_Avg <= 70.0\nmse = 696.9\nsamples = 6\nvalue = 4130.3"] ;
1005 -> 1007 ;
1008 [label="month_int <= 5.5\nmse = 385.6\nsamples = 5\nvalue = 4139.0"] ;
1007 -> 1008 ;
1009 [label="day <= 17.0\nmse = 272.2\nsamples = 2\nvalue = 4157.5"] ;
1008 -> 1009 ;
1010 [label="mse = 0.0\nsamples = 1\nvalue = 4141.0"] ;
1009 -> 1010 ;
1011 [label="mse = 0.0\nsamples = 1\nvalue = 4174.0"] ;
1009 -> 1011 ;
1012 [label="day <= 13.0\nmse = 80.9\nsamples = 3\nvalue = 4126.7"] ;
1008 -> 1012 ;
1013 [label="Temp_Avg <= 63.0\nmse = 25.0\nsamples = 2\nvalue = 4121.0"] ;
1012 -> 1013 ;
1014 [label="mse = 0.0\nsamples = 1\nvalue = 4116.0"] ;
1013 -> 1014 ;
1015 [label="mse = 0.0\nsamples = 1\nvalue = 4126.0"] ;
1013 -> 1015 ;
1016 [label="mse = 0.0\nsamples = 1\nvalue = 4138.0"] ;
1012 -> 1016 ;
1017 [label="mse = 0.0\nsamples = 1\nvalue = 4087.0"] ;
1007 -> 1017 ;
1018 [label="dateRow <= 2015.5\nmse = 900.8\nsamples = 3\nvalue = 3986.5"] ;
1002 -> 1018 ;
1019 [label="mse = 0.0\nsamples = 1\nvalue = 3959.0"] ;
1018 -> 1019 ;
1020 [label="dateRow <= 2015.6\nmse = 289.0\nsamples = 2\nvalue = 4014.0"] ;
1018 -> 1020 ;
1021 [label="mse = 0.0\nsamples = 1\nvalue = 4031.0"] ;
1020 -> 1021 ;
1022 [label="mse = 0.0\nsamples = 1\nvalue = 3997.0"] ;
1020 -> 1022 ;
1023 [label="dateRow <= 2015.7\nmse = 22243.2\nsamples = 16\nvalue = 3900.4"] ;
991 -> 1023 ;
1024 [label="month_int <= 5.0\nmse = 14782.1\nsamples = 9\nvalue = 3826.9"] ;
1023 -> 1024 ;
1025 [label="Temp_Avg <= 62.5\nmse = 12321.0\nsamples = 2\nvalue = 4100.0"] ;
1024 -> 1025 ;
1026 [label="mse = 0.0\nsamples = 1\nvalue = 3989.0"] ;
1025 -> 1026 ;
1027 [label="mse = 0.0\nsamples = 1\nvalue = 4211.0"] ;
1025 -> 1027 ;
1028 [label="day <= 12.5\nmse = 6361.1\nsamples = 7\nvalue = 3798.1"] ;
1024 -> 1028 ;
1029 [label="month_int <= 11.0\nmse = 3168.8\nsamples = 2\nvalue = 3918.5"] ;
1028 -> 1029 ;
1030 [label="mse = 0.0\nsamples = 1\nvalue = 3821.0"] ;
1029 -> 1030 ;
1031 [label="mse = 0.0\nsamples = 1\nvalue = 3951.0"] ;
1029 -> 1031 ;
1032 [label="day <= 27.5\nmse = 2316.4\nsamples = 5\nvalue = 3766.0"] ;
1028 -> 1032 ;
1033 [label="day <= 16.5\nmse = 1432.6\nsamples = 4\nvalue = 3787.5"] ;
1032 -> 1033 ;
1034 [label="dateRow <= 2015.7\nmse = 121.0\nsamples = 2\nvalue = 3754.0"] ;
1033 -> 1034 ;
1035 [label="mse = 0.0\nsamples = 1\nvalue = 3743.0"] ;
1034 -> 1035 ;
1036 [label="mse = 0.0\nsamples = 1\nvalue = 3765.0"] ;
1034 -> 1036 ;
1037 [label="Temp_Avg <= 68.5\nmse = 51.8\nsamples = 2\nvalue = 3827.6"] ;
1033 -> 1037 ;
1038 [label="mse = 0.0\nsamples = 1\nvalue = 3824.0"] ;
1037 -> 1038 ;
1039 [label="mse = 0.0\nsamples = 1\nvalue = 3842.0"] ;
1037 -> 1039 ;
1040 [label="mse = 0.0\nsamples = 1\nvalue = 3707.0"] ;
1032 -> 1040 ;
1041 [label="month_int <= 7.5\nmse = 9275.7\nsamples = 7\nvalue = 4029.1"] ;
1023 -> 1041 ;
1042 [label="mse = 0.0\nsamples = 1\nvalue = 4234.0"] ;
1041 -> 1042 ;
1043 [label="dateRow <= 2015.8\nmse = 5954.6\nsamples = 6\nvalue = 4010.5"] ;
1041 -> 1043 ;
1044 [label="day <= 14.5\nmse = 5260.4\nsamples = 4\nvalue = 3971.9"] ;
1043 -> 1044 ;
1045 [label="mse = 0.0\nsamples = 1\nvalue = 4080.0"] ;
1044 -> 1045 ;
1046 [label="day <= 15.5\nmse = 815.4\nsamples = 3\nvalue = 3928.6"] ;
1044 -> 1046 ;
1047 [label="mse = 0.0\nsamples = 1\nvalue = 3907.0"] ;
1046 -> 1047 ;
1048 [label="dateRow <= 2015.7\nmse = 289.0\nsamples = 2\nvalue = 3961.0"] ;
1046 -> 1048 ;
1049 [label="mse = 0.0\nsamples = 1\nvalue = 3978.0"] ;
1048 -> 1049 ;
1050 [label="mse = 0.0\nsamples = 1\nvalue = 3944.0"] ;
1048 -> 1050 ;
1051 [label="mse = 0.0\nsamples = 2\nvalue = 4078.0"] ;
1043 -> 1051 ;
1052 [label="Temp_Avg <= 51.5\nmse = 61577.2\nsamples = 19\nvalue = 3627.2"] ;
950 -> 1052 ;
1053 [label="month_int <= 3.5\nmse = 43320.3\nsamples = 11\nvalue = 3525.2"] ;
1052 -> 1053 ;
1054 [label="dateRow <= 2016.2\nmse = 46961.5\nsamples = 4\nvalue = 3695.2"] ;
1053 -> 1054 ;
1055 [label="dateRow <= 2016.2\nmse = 11369.6\nsamples = 3\nvalue = 3898.3"] ;
1054 -> 1055 ;
1056 [label="day <= 2.0\nmse = 3721.0\nsamples = 2\nvalue = 3965.0"] ;
1055 -> 1056 ;
1057 [label="mse = 0.0\nsamples = 1\nvalue = 4026.0"] ;
1056 -> 1057 ;
1058 [label="mse = 0.0\nsamples = 1\nvalue = 3904.0"] ;
1056 -> 1058 ;
1059 [label="mse = 0.0\nsamples = 1\nvalue = 3765.0"] ;
1055 -> 1059 ;
1060 [label="mse = 0.0\nsamples = 1\nvalue = 3492.0"] ;
1054 -> 1060 ;
1061 [label="Temp_Avg <= 43.5\nmse = 13398.4\nsamples = 7\nvalue = 3423.2"] ;
1053 -> 1061 ;
1062 [label="year <= 2015.5\nmse = 1922.0\nsamples = 2\nvalue = 3563.0"] ;
1061 -> 1062 ;
1063 [label="mse = 0.0\nsamples = 1\nvalue = 3594.0"] ;
1062 -> 1063 ;
1064 [label="mse = 0.0\nsamples = 1\nvalue = 3501.0"] ;
1062 -> 1064 ;
1065 [label="Temp_Avg <= 50.0\nmse = 6351.1\nsamples = 5\nvalue = 3363.3"] ;
1061 -> 1065 ;
1066 [label="Temp_Avg <= 44.5\nmse = 2959.2\nsamples = 4\nvalue = 3388.5"] ;
1065 -> 1066 ;
1067 [label="mse = 0.0\nsamples = 1\nvalue = 3326.0"] ;
1066 -> 1067 ;
1068 [label="year <= 2015.5\nmse = 1509.2\nsamples = 3\nvalue = 3419.8"] ;
1066 -> 1068 ;
1069 [label="day <= 26.5\nmse = 32.0\nsamples = 2\nvalue = 3442.0"] ;
1068 -> 1069 ;
1070 [label="mse = 0.0\nsamples = 1\nvalue = 3434.0"] ;
1069 -> 1070 ;
1071 [label="mse = 0.0\nsamples = 1\nvalue = 3446.0"] ;
1069 -> 1071 ;
1072 [label="mse = 0.0\nsamples = 1\nvalue = 3353.0"] ;
1068 -> 1072 ;
1073 [label="mse = 0.0\nsamples = 1\nvalue = 3212.0"] ;
1065 -> 1073 ;
1074 [label="day <= 24.0\nmse = 47470.8\nsamples = 8\nvalue = 3790.5"] ;
1052 -> 1074 ;
1075 [label="year <= 2015.5\nmse = 13820.5\nsamples = 3\nvalue = 4008.0"] ;
1074 -> 1075 ;
1076 [label="dateRow <= 2015.9\nmse = 729.0\nsamples = 2\nvalue = 3892.0"] ;
1075 -> 1076 ;
1077 [label="mse = 0.0\nsamples = 1\nvalue = 3865.0"] ;
1076 -> 1077 ;
1078 [label="mse = 0.0\nsamples = 1\nvalue = 3919.0"] ;
1076 -> 1078 ;
1079 [label="mse = 0.0\nsamples = 1\nvalue = 4124.0"] ;
1075 -> 1079 ;
1080 [label="dateRow <= 2015.9\nmse = 17341.9\nsamples = 5\nvalue = 3645.5"] ;
1074 -> 1080 ;
1081 [label="dateRow <= 2015.9\nmse = 1110.6\nsamples = 4\nvalue = 3702.8"] ;
1080 -> 1081 ;
1082 [label="dateRow <= 2015.8\nmse = 306.2\nsamples = 2\nvalue = 3739.5"] ;
1081 -> 1082 ;
1083 [label="mse = 0.0\nsamples = 1\nvalue = 3757.0"] ;
1082 -> 1083 ;
1084 [label="mse = 0.0\nsamples = 1\nvalue = 3722.0"] ;
1082 -> 1084 ;
1085 [label="dateRow <= 2015.9\nmse = 150.2\nsamples = 2\nvalue = 3678.3"] ;
1081 -> 1085 ;
1086 [label="mse = 0.0\nsamples = 1\nvalue = 3687.0"] ;
1085 -> 1086 ;
1087 [label="mse = 0.0\nsamples = 1\nvalue = 3661.0"] ;
1085 -> 1087 ;
1088 [label="mse = 0.0\nsamples = 1\nvalue = 3359.0"] ;
1080 -> 1088 ;
1089 [label="day <= 1.5\nmse = 48086.1\nsamples = 184\nvalue = 3967.7"] ;
949 -> 1089 ;
1090 [label="month_int <= 5.5\nmse = 132104.2\nsamples = 5\nvalue = 4365.4"] ;
1089 -> 1090 ;
1091 [label="mse = 0.0\nsamples = 1\nvalue = 4928.0"] ;
1090 -> 1091 ;
1092 [label="Temp_Avg <= 47.5\nmse = 35451.5\nsamples = 4\nvalue = 4177.8"] ;
1090 -> 1092 ;
1093 [label="mse = 0.0\nsamples = 1\nvalue = 4353.0"] ;
1092 -> 1093 ;
1094 [label="Temp_Avg <= 48.5\nmse = 9536.2\nsamples = 3\nvalue = 4002.7"] ;
1092 -> 1094 ;
1095 [label="mse = 0.0\nsamples = 1\nvalue = 4125.0"] ;
1094 -> 1095 ;
1096 [label="year <= 2016.5\nmse = 3080.2\nsamples = 2\nvalue = 3941.5"] ;
1094 -> 1096 ;
1097 [label="mse = 0.0\nsamples = 1\nvalue = 3997.0"] ;
1096 -> 1097 ;
1098 [label="mse = 0.0\nsamples = 1\nvalue = 3886.0"] ;
1096 -> 1098 ;
1099 [label="day <= 22.5\nmse = 41113.4\nsamples = 179\nvalue = 3956.4"] ;
1089 -> 1099 ;
1100 [label="month_int <= 3.5\nmse = 33550.0\nsamples = 118\nvalue = 3993.9"] ;
1099 -> 1100 ;
1101 [label="dateRow <= 2017.2\nmse = 41744.6\nsamples = 15\nvalue = 4142.4"] ;
1100 -> 1101 ;
1102 [label="day <= 11.5\nmse = 26614.2\nsamples = 10\nvalue = 4223.9"] ;
1101 -> 1102 ;
1103 [label="dateRow <= 2016.3\nmse = 4058.4\nsamples = 6\nvalue = 4345.5"] ;
1102 -> 1103 ;
1104 [label="Temp_Avg <= 52.5\nmse = 829.4\nsamples = 2\nvalue = 4295.4"] ;
1103 -> 1104 ;
1105 [label="mse = 0.0\nsamples = 1\nvalue = 4353.0"] ;
1104 -> 1105 ;
1106 [label="mse = 0.0\nsamples = 1\nvalue = 4281.0"] ;
1104 -> 1106 ;
1107 [label="dateRow <= 2017.2\nmse = 2267.4\nsamples = 4\nvalue = 4395.6"] ;
1103 -> 1107 ;
1108 [label="dateRow <= 2016.3\nmse = 544.5\nsamples = 3\nvalue = 4417.0"] ;
1107 -> 1108 ;
1109 [label="mse = 0.0\nsamples = 1\nvalue = 4395.0"] ;
1108 -> 1109 ;
1110 [label="dateRow <= 2016.7\nmse = 121.0\nsamples = 2\nvalue = 4439.0"] ;
1108 -> 1110 ;
1111 [label="mse = 0.0\nsamples = 1\nvalue = 4428.0"] ;
1110 -> 1111 ;
1112 [label="mse = 0.0\nsamples = 1\nvalue = 4450.0"] ;
1110 -> 1112 ;
1113 [label="mse = 0.0\nsamples = 1\nvalue = 4310.0"] ;
1107 -> 1113 ;
1114 [label="month_int <= 1.5\nmse = 7521.6\nsamples = 4\nvalue = 4050.1"] ;
1102 -> 1114 ;
1115 [label="mse = 0.0\nsamples = 1\nvalue = 3858.0"] ;
1114 -> 1115 ;
1116 [label="Temp_Avg <= 48.0\nmse = 1596.5\nsamples = 3\nvalue = 4082.2"] ;
1114 -> 1116 ;
1117 [label="day <= 18.0\nmse = 175.0\nsamples = 2\nvalue = 4099.2"] ;
1116 -> 1117 ;
1118 [label="mse = 0.0\nsamples = 1\nvalue = 4083.0"] ;
1117 -> 1118 ;
1119 [label="mse = 0.0\nsamples = 1\nvalue = 4110.0"] ;
1117 -> 1119 ;
1120 [label="mse = 0.0\nsamples = 1\nvalue = 3997.0"] ;
1116 -> 1120 ;
1121 [label="day <= 21.5\nmse = 12564.6\nsamples = 5\nvalue = 3911.7"] ;
1101 -> 1121 ;
1122 [label="day <= 8.0\nmse = 7069.4\nsamples = 4\nvalue = 3948.2"] ;
1121 -> 1122 ;
1123 [label="mse = 0.0\nsamples = 1\nvalue = 3801.0"] ;
1122 -> 1123 ;
1124 [label="Temp_Avg <= 47.5\nmse = 2065.5\nsamples = 3\nvalue = 3985.0"] ;
1122 -> 1124 ;
1125 [label="mse = 0.0\nsamples = 1\nvalue = 4057.0"] ;
1124 -> 1125 ;
1126 [label="Temp_Avg <= 52.5\nmse = 450.0\nsamples = 2\nvalue = 3961.0"] ;
1124 -> 1126 ;
1127 [label="mse = 0.0\nsamples = 1\nvalue = 3991.0"] ;
1126 -> 1127 ;
1128 [label="mse = 0.0\nsamples = 1\nvalue = 3946.0"] ;
1126 -> 1128 ;
1129 [label="mse = 0.0\nsamples = 1\nvalue = 3729.0"] ;
1121 -> 1129 ;
1130 [label="dateRow <= 2016.7\nmse = 28779.0\nsamples = 103\nvalue = 3972.7"] ;
1100 -> 1130 ;
1131 [label="dateRow <= 2016.5\nmse = 31721.8\nsamples = 44\nvalue = 3919.2"] ;
1130 -> 1131 ;
1132 [label="dateRow <= 2016.5\nmse = 22212.8\nsamples = 32\nvalue = 3965.2"] ;
1131 -> 1132 ;
1133 [label="month_int <= 6.5\nmse = 24009.5\nsamples = 19\nvalue = 3890.4"] ;
1132 -> 1133 ;
1134 [label="dateRow <= 2016.4\nmse = 19449.5\nsamples = 16\nvalue = 3931.0"] ;
1133 -> 1134 ;
1135 [label="dateRow <= 2016.3\nmse = 20832.8\nsamples = 9\nvalue = 3882.3"] ;
1134 -> 1135 ;
1136 [label="month_int <= 5.5\nmse = 4801.2\nsamples = 7\nvalue = 3947.6"] ;
1135 -> 1136 ;
1137 [label="dateRow <= 2016.3\nmse = 3238.1\nsamples = 5\nvalue = 3917.9"] ;
1136 -> 1137 ;
1138 [label="dateRow <= 2016.3\nmse = 534.6\nsamples = 3\nvalue = 3940.4"] ;
1137 -> 1138 ;
1139 [label="mse = 0.0\nsamples = 1\nvalue = 3913.0"] ;
1138 -> 1139 ;
1140 [label="Temp_Avg <= 51.5\nmse = 56.9\nsamples = 2\nvalue = 3958.7"] ;
1138 -> 1140 ;
1141 [label="mse = 0.0\nsamples = 1\nvalue = 3964.0"] ;
1140 -> 1141 ;
1142 [label="mse = 0.0\nsamples = 1\nvalue = 3948.0"] ;
1140 -> 1142 ;
1143 [label="dateRow <= 2016.3\nmse = 5550.2\nsamples = 2\nvalue = 3861.5"] ;
1137 -> 1143 ;
1144 [label="mse = 0.0\nsamples = 1\nvalue = 3787.0"] ;
1143 -> 1144 ;
1145 [label="mse = 0.0\nsamples = 1\nvalue = 3936.0"] ;
1143 -> 1145 ;
1146 [label="Temp_Avg <= 68.5\nmse = 1568.0\nsamples = 2\nvalue = 4017.0"] ;
1136 -> 1146 ;
1147 [label="mse = 0.0\nsamples = 1\nvalue = 3989.0"] ;
1146 -> 1147 ;
1148 [label="mse = 0.0\nsamples = 1\nvalue = 4073.0"] ;
1146 -> 1148 ;
1149 [label="day <= 8.5\nmse = 12693.6\nsamples = 2\nvalue = 3664.7"] ;
1135 -> 1149 ;
1150 [label="mse = 0.0\nsamples = 1\nvalue = 3585.0"] ;
1149 -> 1150 ;
1151 [label="mse = 0.0\nsamples = 1\nvalue = 3824.0"] ;
1149 -> 1151 ;
1152 [label="day <= 11.5\nmse = 11711.7\nsamples = 7\nvalue = 3988.5"] ;
1134 -> 1152 ;
1153 [label="mse = 0.0\nsamples = 1\nvalue = 4268.0"] ;
1152 -> 1153 ;
1154 [label="dateRow <= 2016.4\nmse = 4286.8\nsamples = 6\nvalue = 3960.5"] ;
1152 -> 1154 ;
1155 [label="dateRow <= 2016.4\nmse = 2139.1\nsamples = 5\nvalue = 3935.1"] ;
1154 -> 1155 ;
1156 [label="mse = 0.0\nsamples = 1\nvalue = 4038.0"] ;
1155 -> 1156 ;
1157 [label="dateRow <= 2016.4\nmse = 716.8\nsamples = 4\nvalue = 3920.4"] ;
1155 -> 1157 ;
1158 [label="dateRow <= 2016.4\nmse = 339.8\nsamples = 3\nvalue = 3934.2"] ;
1157 -> 1158 ;
1159 [label="mse = 0.0\nsamples = 1\nvalue = 3898.0"] ;
1158 -> 1159 ;
1160 [label="dateRow <= 2016.4\nmse = 15.2\nsamples = 2\nvalue = 3943.2"] ;
1158 -> 1160 ;
1161 [label="mse = 0.0\nsamples = 1\nvalue = 3950.0"] ;
1160 -> 1161 ;
1162 [label="mse = 0.0\nsamples = 1\nvalue = 3941.0"] ;
1160 -> 1162 ;
1163 [label="mse = 0.0\nsamples = 1\nvalue = 3886.0"] ;
1157 -> 1163 ;
1164 [label="mse = 0.0\nsamples = 1\nvalue = 4062.0"] ;
1154 -> 1164 ;
1165 [label="Temp_Avg <= 64.5\nmse = 54.2\nsamples = 3\nvalue = 3695.6"] ;
1133 -> 1165 ;
1166 [label="mse = 0.0\nsamples = 1\nvalue = 3710.0"] ;
1165 -> 1166 ;
1167 [label="day <= 6.5\nmse = 3.0\nsamples = 2\nvalue = 3692.0"] ;
1165 -> 1167 ;
1168 [label="mse = 0.0\nsamples = 1\nvalue = 3689.0"] ;
1167 -> 1168 ;
1169 [label="mse = 0.0\nsamples = 1\nvalue = 3693.0"] ;
1167 -> 1169 ;
1170 [label="month_int <= 4.5\nmse = 7795.3\nsamples = 13\nvalue = 4045.7"] ;
1132 -> 1170 ;
1171 [label="dateRow <= 2016.5\nmse = 2334.0\nsamples = 3\nvalue = 4109.0"] ;
1170 -> 1171 ;
1172 [label="Temp_Avg <= 65.5\nmse = 196.0\nsamples = 2\nvalue = 4136.0"] ;
1171 -> 1172 ;
1173 [label="mse = 0.0\nsamples = 1\nvalue = 4122.0"] ;
1172 -> 1173 ;
1174 [label="mse = 0.0\nsamples = 1\nvalue = 4150.0"] ;
1172 -> 1174 ;
1175 [label="mse = 0.0\nsamples = 1\nvalue = 4028.0"] ;
1171 -> 1175 ;
1176 [label="Temp_Avg <= 56.0\nmse = 7694.8\nsamples = 10\nvalue = 4019.0"] ;
1170 -> 1176 ;
1177 [label="mse = 0.0\nsamples = 1\nvalue = 4129.0"] ;
1176 -> 1177 ;
1178 [label="Temp_Avg <= 68.5\nmse = 6443.5\nsamples = 9\nvalue = 3998.4"] ;
1176 -> 1178 ;
1179 [label="month_int <= 10.5\nmse = 4634.8\nsamples = 7\nvalue = 3959.9"] ;
1178 -> 1179 ;
1180 [label="day <= 4.0\nmse = 2167.9\nsamples = 5\nvalue = 3925.3"] ;
1179 -> 1180 ;
1181 [label="mse = 0.0\nsamples = 1\nvalue = 3842.0"] ;
1180 -> 1181 ;
1182 [label="day <= 11.0\nmse = 934.8\nsamples = 4\nvalue = 3942.0"] ;
1180 -> 1182 ;
1183 [label="mse = 0.0\nsamples = 1\nvalue = 4001.0"] ;
1182 -> 1183 ;
1184 [label="Temp_Avg <= 62.0\nmse = 80.7\nsamples = 3\nvalue = 3927.2"] ;
1182 -> 1184 ;
1185 [label="dateRow <= 2016.5\nmse = 10.9\nsamples = 2\nvalue = 3922.3"] ;
1184 -> 1185 ;
1186 [label="mse = 0.0\nsamples = 1\nvalue = 3927.0"] ;
1185 -> 1186 ;
1187 [label="mse = 0.0\nsamples = 1\nvalue = 3920.0"] ;
1185 -> 1187 ;
1188 [label="mse = 0.0\nsamples = 1\nvalue = 3942.0"] ;
1184 -> 1188 ;
1189 [label="dateRow <= 2016.5\nmse = 4439.0\nsamples = 2\nvalue = 4001.4"] ;
1179 -> 1189 ;
1190 [label="mse = 0.0\nsamples = 1\nvalue = 3947.0"] ;
1189 -> 1190 ;
1191 [label="mse = 0.0\nsamples = 1\nvalue = 4083.0"] ;
1189 -> 1191 ;
1192 [label="day <= 14.0\nmse = 6.0\nsamples = 2\nvalue = 4083.0"] ;
1178 -> 1192 ;
1193 [label="mse = 0.0\nsamples = 1\nvalue = 4081.0"] ;
1192 -> 1193 ;
1194 [label="mse = 0.0\nsamples = 1\nvalue = 4086.0"] ;
1192 -> 1194 ;
1195 [label="Temp_Avg <= 64.0\nmse = 35076.5\nsamples = 12\nvalue = 3783.5"] ;
1131 -> 1195 ;
1196 [label="Temp_Avg <= 43.5\nmse = 30359.8\nsamples = 10\nvalue = 3729.3"] ;
1195 -> 1196 ;
1197 [label="mse = 0.0\nsamples = 1\nvalue = 4078.0"] ;
1196 -> 1197 ;
1198 [label="dateRow <= 2016.6\nmse = 13450.4\nsamples = 9\nvalue = 3675.7"] ;
1196 -> 1198 ;
1199 [label="month_int <= 10.5\nmse = 6956.2\nsamples = 5\nvalue = 3634.6"] ;
1198 -> 1199 ;
1200 [label="dateRow <= 2016.6\nmse = 4981.7\nsamples = 2\nvalue = 3569.2"] ;
1199 -> 1200 ;
1201 [label="mse = 0.0\nsamples = 1\nvalue = 3447.0"] ;
1200 -> 1201 ;
1202 [label="mse = 0.0\nsamples = 1\nvalue = 3610.0"] ;
1200 -> 1202 ;
1203 [label="dateRow <= 2016.5\nmse = 2394.6\nsamples = 3\nvalue = 3686.8"] ;
1199 -> 1203 ;
1204 [label="mse = 0.0\nsamples = 1\nvalue = 3598.0"] ;
1203 -> 1204 ;
1205 [label="day <= 5.5\nmse = 529.0\nsamples = 2\nvalue = 3709.0"] ;
1203 -> 1205 ;
1206 [label="mse = 0.0\nsamples = 1\nvalue = 3732.0"] ;
1205 -> 1206 ;
1207 [label="mse = 0.0\nsamples = 1\nvalue = 3686.0"] ;
1205 -> 1207 ;
1208 [label="day <= 12.5\nmse = 15687.7\nsamples = 4\nvalue = 3768.2"] ;
1198 -> 1208 ;
1209 [label="Temp_Avg <= 57.0\nmse = 705.6\nsamples = 3\nvalue = 3839.3"] ;
1208 -> 1209 ;
1210 [label="day <= 9.5\nmse = 225.0\nsamples = 2\nvalue = 3856.0"] ;
1209 -> 1210 ;
1211 [label="mse = 0.0\nsamples = 1\nvalue = 3841.0"] ;
1210 -> 1211 ;
1212 [label="mse = 0.0\nsamples = 1\nvalue = 3871.0"] ;
1210 -> 1212 ;
1213 [label="mse = 0.0\nsamples = 1\nvalue = 3806.0"] ;
1209 -> 1213 ;
1214 [label="mse = 0.0\nsamples = 1\nvalue = 3555.0"] ;
1208 -> 1214 ;
1215 [label="Temp_Avg <= 68.5\nmse = 552.2\nsamples = 2\nvalue = 3986.5"] ;
1195 -> 1215 ;
1216 [label="mse = 0.0\nsamples = 1\nvalue = 4010.0"] ;
1215 -> 1216 ;
1217 [label="mse = 0.0\nsamples = 1\nvalue = 3963.0"] ;
1215 -> 1217 ;
1218 [label="month_int <= 11.5\nmse = 21536.0\nsamples = 59\nvalue = 4019.4"] ;
1130 -> 1218 ;
1219 [label="Temp_Avg <= 53.0\nmse = 19198.5\nsamples = 52\nvalue = 4003.1"] ;
1218 -> 1219 ;
1220 [label="day <= 5.0\nmse = 16005.9\nsamples = 17\nvalue = 3944.2"] ;
1219 -> 1220 ;
1221 [label="Temp_Avg <= 49.5\nmse = 4323.4\nsamples = 3\nvalue = 3868.8"] ;
1220 -> 1221 ;
1222 [label="mse = 0.0\nsamples = 1\nvalue = 4000.0"] ;
1221 -> 1222 ;
1223 [label="dateRow <= 2017.4\nmse = 25.0\nsamples = 2\nvalue = 3836.0"] ;
1221 -> 1223 ;
1224 [label="mse = 0.0\nsamples = 1\nvalue = 3841.0"] ;
1223 -> 1224 ;
1225 [label="mse = 0.0\nsamples = 1\nvalue = 3831.0"] ;
1223 -> 1225 ;
1226 [label="Temp_Avg <= 50.5\nmse = 17279.1\nsamples = 14\nvalue = 3966.4"] ;
1220 -> 1226 ;
1227 [label="dateRow <= 2017.6\nmse = 14630.6\nsamples = 12\nvalue = 3946.5"] ;
1226 -> 1227 ;
1228 [label="dateRow <= 2017.3\nmse = 30790.2\nsamples = 5\nvalue = 3888.4"] ;
1227 -> 1228 ;
1229 [label="Temp_Avg <= 46.5\nmse = 13100.7\nsamples = 3\nvalue = 4012.0"] ;
1228 -> 1229 ;
1230 [label="mse = 0.0\nsamples = 1\nvalue = 4173.0"] ;
1229 -> 1230 ;
1231 [label="month_int <= 7.5\nmse = 210.2\nsamples = 2\nvalue = 3931.5"] ;
1229 -> 1231 ;
1232 [label="mse = 0.0\nsamples = 1\nvalue = 3946.0"] ;
1231 -> 1232 ;
1233 [label="mse = 0.0\nsamples = 1\nvalue = 3917.0"] ;
1231 -> 1233 ;
1234 [label="month_int <= 7.5\nmse = 36.0\nsamples = 2\nvalue = 3703.0"] ;
1228 -> 1234 ;
1235 [label="mse = 0.0\nsamples = 1\nvalue = 3709.0"] ;
1234 -> 1235 ;
1236 [label="mse = 0.0\nsamples = 1\nvalue = 3697.0"] ;
1234 -> 1236 ;
1237 [label="Temp_Avg <= 46.0\nmse = 4016.2\nsamples = 7\nvalue = 3975.6"] ;
1227 -> 1237 ;
1238 [label="day <= 13.5\nmse = 2186.5\nsamples = 4\nvalue = 3952.8"] ;
1237 -> 1238 ;
1239 [label="mse = 0.0\nsamples = 1\nvalue = 4023.0"] ;
1238 -> 1239 ;
1240 [label="day <= 15.5\nmse = 1442.2\nsamples = 3\nvalue = 3938.8"] ;
1238 -> 1240 ;
1241 [label="mse = 0.0\nsamples = 1\nvalue = 3912.0"] ;
1240 -> 1241 ;
1242 [label="Temp_Avg <= 43.5\nmse = 1605.6\nsamples = 2\nvalue = 3956.7"] ;
1240 -> 1242 ;
1243 [label="mse = 0.0\nsamples = 1\nvalue = 3985.0"] ;
1242 -> 1243 ;
1244 [label="mse = 0.0\nsamples = 1\nvalue = 3900.0"] ;
1242 -> 1244 ;
1245 [label="month_int <= 10.5\nmse = 4817.2\nsamples = 3\nvalue = 4009.8"] ;
1237 -> 1245 ;
1246 [label="mse = 0.0\nsamples = 1\nvalue = 3896.0"] ;
1245 -> 1246 ;
1247 [label="day <= 12.5\nmse = 672.2\nsamples = 2\nvalue = 4047.7"] ;
1245 -> 1247 ;
1248 [label="mse = 0.0\nsamples = 1\nvalue = 4011.0"] ;
1247 -> 1248 ;
1249 [label="mse = 0.0\nsamples = 1\nvalue = 4066.0"] ;
1247 -> 1249 ;
1250 [label="month_int <= 4.5\nmse = 12100.0\nsamples = 2\nvalue = 4115.0"] ;
1226 -> 1250 ;
1251 [label="mse = 0.0\nsamples = 1\nvalue = 4005.0"] ;
1250 -> 1251 ;
1252 [label="mse = 0.0\nsamples = 1\nvalue = 4225.0"] ;
1250 -> 1252 ;
1253 [label="Temp_Avg <= 68.5\nmse = 18511.1\nsamples = 35\nvalue = 4027.1"] ;
1219 -> 1253 ;
1254 [label="day <= 5.5\nmse = 13667.2\nsamples = 26\nvalue = 4066.3"] ;
1253 -> 1254 ;
1255 [label="day <= 3.5\nmse = 8682.5\nsamples = 6\nvalue = 4141.0"] ;
1254 -> 1255 ;
1256 [label="dateRow <= 2017.2\nmse = 7469.8\nsamples = 4\nvalue = 4111.2"] ;
1255 -> 1256 ;
1257 [label="mse = 0.0\nsamples = 1\nvalue = 4269.0"] ;
1256 -> 1257 ;
1258 [label="dateRow <= 2017.5\nmse = 2985.0\nsamples = 3\nvalue = 4079.6"] ;
1256 -> 1258 ;
1259 [label="dateRow <= 2017.4\nmse = 180.2\nsamples = 2\nvalue = 4106.2"] ;
1258 -> 1259 ;
1260 [label="mse = 0.0\nsamples = 1\nvalue = 4114.0"] ;
1259 -> 1260 ;
1261 [label="mse = 0.0\nsamples = 1\nvalue = 4083.0"] ;
1259 -> 1261 ;
1262 [label="mse = 0.0\nsamples = 1\nvalue = 3973.0"] ;
1258 -> 1262 ;
1263 [label="Temp_Avg <= 64.5\nmse = 1640.2\nsamples = 2\nvalue = 4230.5"] ;
1255 -> 1263 ;
1264 [label="mse = 0.0\nsamples = 1\nvalue = 4271.0"] ;
1263 -> 1264 ;
1265 [label="mse = 0.0\nsamples = 1\nvalue = 4190.0"] ;
1263 -> 1265 ;
1266 [label="month_int <= 4.5\nmse = 13111.1\nsamples = 20\nvalue = 4046.4"] ;
1254 -> 1266 ;
1267 [label="Temp_Avg <= 60.5\nmse = 17534.9\nsamples = 3\nvalue = 3861.3"] ;
1266 -> 1267 ;
1268 [label="Temp_Avg <= 56.5\nmse = 169.0\nsamples = 2\nvalue = 3768.0"] ;
1267 -> 1268 ;
1269 [label="mse = 0.0\nsamples = 1\nvalue = 3755.0"] ;
1268 -> 1269 ;
1270 [label="mse = 0.0\nsamples = 1\nvalue = 3781.0"] ;
1268 -> 1270 ;
1271 [label="mse = 0.0\nsamples = 1\nvalue = 4048.0"] ;
1267 -> 1271 ;
